svm_type c_svc
kernel_type rbf
gamma 0.5
nr_class 3
total_sv 1416
rho 1.11643 -2.2464 -5.74895
label 1 2 3
nr_sv 443 535 438
SV
32 0 1:0.148567 2:-0.0527378 3:-0.434409 4:-0.34831 5:-0.583632 6:-0.682879 7:-0.340938 8:-0.67048 9:-0.846727 10:-0.849379 11:-0.840919 12:-0.779146 13:-0.207513 14:0.240241 15:0.107467 16:0.148567 17:-0.0527378 18:-0.434409 19:-0.34831 20:-0.583632 21:-0.682879 22:-0.340938 23:-0.67048 24:-0.846727 25:-0.849379 26:-0.840919 27:-0.779146 28:-0.207513 29:0.240241 30:0.107467 
32 0 1:0.23512 2:0.266806 3:-0.0302037 4:-0.349364 5:-0.636732 6:-0.467467 7:-0.584616 8:-0.770356 9:-0.787775 10:-0.882184 11:-0.871179 12:-0.782796 13:-0.102029 14:0.236138 15:0.182338 16:0.23512 17:0.266806 18:-0.0302037 19:-0.349364 20:-0.636732 21:-0.467467 22:-0.584616 23:-0.770356 24:-0.787775 25:-0.882184 26:-0.871179 27:-0.782796 28:-0.102029 29:0.236138 30:0.182338 
32 0 1:0.166358 2:0.66734 3:0.0793271 4:-0.267203 5:-0.719799 6:-0.495094 7:-0.733633 8:-0.752004 9:-0.861117 10:-0.763756 11:-0.820405 12:-0.725344 13:0.0514981 14:0.329758 15:0.190712 16:0.166358 17:0.66734 18:0.0793271 19:-0.267203 20:-0.719799 21:-0.495094 22:-0.733633 23:-0.752004 24:-0.861117 25:-0.763756 26:-0.820405 27:-0.725344 28:0.0514981 29:0.329758 30:0.190712 
32 0 1:0.240584 2:0.65814 3:-0.0333588 4:-0.252906 5:-0.712878 6:-0.648149 7:-0.698052 8:-0.686206 9:-0.778219 10:-0.770812 11:-0.884319 12:-0.713677 13:0.0880852 14:0.295379 15:0.173293 16:0.240584 17:0.65814 18:-0.0333588 19:-0.252906 20:-0.712878 21:-0.648149 22:-0.698052 23:-0.686206 24:-0.778219 25:-0.770812 26:-0.884319 27:-0.713677 28:0.0880852 29:0.295379 30:0.173293 
13.36241708176168 0 1:0.192359 2:-0.0778307 3:-0.0733674 4:0.0859508 5:-0.130383 6:0.263734 7:-0.583528 8:0.219589 9:-0.610496 10:-0.232548 11:-0.881958 12:-0.299962 13:0.0701393 14:0.155212 15:0.207223 16:0.192359 17:-0.0778307 18:-0.0733674 19:0.0859508 20:-0.130383 21:0.263734 22:-0.583528 23:0.219589 24:-0.610496 25:-0.232548 26:-0.881958 27:-0.299962 28:0.0701393 29:0.155212 30:0.207223 
1.569350363024181 0 1:-0.170912 2:-0.751111 3:-0.341355 4:0.526075 5:0.236734 6:0.382416 7:-0.488057 8:0.590756 9:-0.493602 10:0.559302 11:-0.867851 12:0.252048 13:0.392883 14:0.28918 15:0.18741 16:-0.170912 17:-0.751111 18:-0.341355 19:0.526075 20:0.236734 21:0.382416 22:-0.488057 23:0.590756 24:-0.493602 25:0.559302 26:-0.867851 27:0.252048 28:0.392883 29:0.28918 30:0.18741 
1.282023959382804 0 1:-0.0104602 2:0.534292 3:-0.698131 4:0.397794 5:0.771213 6:0.0994901 7:0.59259 8:0.351984 9:0.0118331 10:-0.594605 11:-0.025391 12:0.0651758 13:-0.012204 14:0.362747 15:-0.333288 16:-0.0104602 17:0.534292 18:-0.698131 19:0.397794 20:0.771213 21:0.0994901 22:0.59259 23:0.351984 24:0.0118331 25:-0.594605 26:-0.025391 27:0.0651758 28:-0.012204 29:0.362747 30:-0.333288 
0.7198384211727766 0 1:0.474941 2:-0.151796 3:-0.934656 4:0.340011 5:-0.275454 6:0.439282 7:-0.12673 8:0.170501 9:-0.412961 10:-0.284192 11:-0.316034 12:-0.0413056 13:-0.421056 14:0.655298 15:-0.270054 16:0.474941 17:-0.151796 18:-0.934656 19:0.340011 20:-0.275454 21:0.439282 22:-0.12673 23:0.170501 24:-0.412961 25:-0.284192 26:-0.316034 27:-0.0413056 28:-0.421056 29:0.655298 30:-0.270054 
0.4070469891993008 0 1:0.0732948 2:0.842111 3:0.0594907 4:0.416242 5:-0.166227 6:0.611492 7:0.516157 8:-0.101692 9:-0.580223 10:-0.35602 11:0.224376 12:0.0262679 13:-0.0505971 14:0.624279 15:-0.238323 16:0.0732948 17:0.842111 18:0.0594907 19:0.416242 20:-0.166227 21:0.611492 22:0.516157 23:-0.101692 24:-0.580223 25:-0.35602 26:0.224376 27:0.0262679 28:-0.0505971 29:0.624279 30:-0.238323 
0.02111612939920431 0 1:0.050681 2:0.856127 3:0.137945 4:0.283019 5:0.180414 6:-0.488049 7:0.65661 8:0.117949 9:-0.536017 10:-0.494631 11:0.0253946 12:-0.109399 13:-0.0481093 14:0.573041 15:-0.233559 16:0.050681 17:0.856127 18:0.137945 19:0.283019 20:0.180414 21:-0.488049 22:0.65661 23:0.117949 24:-0.536017 25:-0.494631 26:0.0253946 27:-0.109399 28:-0.0481093 29:0.573041 30:-0.233559 
32 32 1:-0.0572669 2:0.205266 3:-0.289878 4:-0.62549 5:-0.866505 6:-0.474328 7:-0.432462 8:-0.456538 9:-0.991628 10:-0.923738 11:-0.894536 12:-0.911618 13:-0.107046 14:0.234807 15:0.079223 16:-0.0572669 17:0.205266 18:-0.289878 19:-0.62549 20:-0.866505 21:-0.474328 22:-0.432462 23:-0.456538 24:-0.991628 25:-0.923738 26:-0.894536 27:-0.911618 28:-0.107046 29:0.234807 30:0.079223 
0.4715461799359164 0 1:0.28021 2:-0.407144 3:-0.428676 4:0.271225 5:-0.413412 6:0.584325 7:-0.333225 8:0.294531 9:-0.632423 10:0.0493146 11:-0.827688 12:-0.115686 13:-0.295183 14:0.158036 15:-0.0198853 16:0.28021 17:-0.407144 18:-0.428676 19:0.271225 20:-0.413412 21:0.584325 22:-0.333225 23:0.294531 24:-0.632423 25:0.0493146 26:-0.827688 27:-0.115686 28:-0.295183 29:0.158036 30:-0.0198853 
32 32 1:-0.000957139 2:0.261496 3:-0.415069 4:-0.71729 5:-0.685637 6:-0.838927 7:-0.567293 8:-0.562586 9:-0.953256 10:-0.993015 11:-0.924827 12:-0.947539 13:-0.0987451 14:0.198732 15:0.0938738 16:-0.000957139 17:0.261496 18:-0.415069 19:-0.71729 20:-0.685637 21:-0.838927 22:-0.567293 23:-0.562586 24:-0.953256 25:-0.993015 26:-0.924827 27:-0.947539 28:-0.0987451 29:0.198732 30:0.0938738 
32 0 1:0.202556 2:0.144987 3:-0.0576941 4:-0.453544 5:-0.594219 6:-0.64313 7:-0.4751 8:-0.332406 9:-0.795724 10:-0.934933 11:-0.83991 12:-0.808321 13:-0.172734 14:0.120544 15:0.169771 16:0.202556 17:0.144987 18:-0.0576941 19:-0.453544 20:-0.594219 21:-0.64313 22:-0.4751 23:-0.332406 24:-0.795724 25:-0.934933 26:-0.83991 27:-0.808321 28:-0.172734 29:0.120544 30:0.169771 
32 0 1:-0.044832 2:0.0320172 3:0.189756 4:-0.162509 5:-0.15605 6:-0.457279 7:-0.484696 8:-0.351864 9:-0.667702 10:-0.870872 11:-0.648066 12:-0.641505 13:-0.191349 14:0.0433154 15:0.0910272 16:-0.044832 17:0.0320172 18:0.189756 19:-0.162509 20:-0.15605 21:-0.457279 22:-0.484696 23:-0.351864 24:-0.667702 25:-0.870872 26:-0.648066 27:-0.641505 28:-0.191349 29:0.0433154 30:0.0910272 
2.084095684591135 0 1:0.179495 2:-0.563255 3:-0.67506 4:0.333883 5:-0.306384 6:-0.0682879 7:0.192907 8:-0.0461873 9:-0.696399 10:0.0600426 11:-0.622776 12:-0.0666971 13:-0.260758 14:0.575348 15:0.0413907 16:0.179495 17:-0.563255 18:-0.67506 19:0.333883 20:-0.306384 21:-0.0682879 22:0.192907 23:-0.0461873 24:-0.696399 25:0.0600426 26:-0.622776 27:-0.0666971 28:-0.260758 29:0.575348 30:0.0413907 
0.4665367520744675 0 1:0.460216 2:-0.489723 3:-0.22249 4:0.483381 5:-0.483009 6:0.821919 7:-0.0921958 8:0.241979 9:-0.387316 10:0.258972 11:-0.719281 12:0.166808 13:-0.674738 14:0.141634 15:0.100124 16:0.460216 17:-0.489723 18:-0.22249 19:0.483381 20:-0.483009 21:0.821919 22:-0.0921958 23:0.241979 24:-0.387316 25:0.258972 26:-0.719281 27:0.166808 28:-0.674738 29:0.141634 30:0.100124 
0.970770461940581 0 1:0.444333 2:-0.189817 3:-0.10952 4:0.449185 5:0.186855 6:0.446534 7:-0.318663 8:-0.194781 9:-0.354046 10:0.131839 11:-0.806142 12:0.0726262 13:-0.230607 14:0.186678 15:0.235305 16:0.444333 17:-0.189817 18:-0.10952 19:0.449185 20:0.186855 21:0.446534 22:-0.318663 23:-0.194781 24:-0.354046 25:0.131839 26:-0.806142 27:0.0726262 28:-0.230607 29:0.186678 30:0.235305 
0.100444280438336 0 1:0.174736 2:0.257863 3:-0.130671 4:-0.298829 5:-0.132402 6:-0.849943 7:-0.0968125 8:-0.275138 9:-0.639353 10:-0.993891 11:-0.703272 12:-0.724287 13:-0.126963 14:0.208373 15:-0.0242726 16:0.174736 17:0.257863 18:-0.130671 19:-0.298829 20:-0.132402 21:-0.849943 22:-0.0968125 23:-0.275138 24:-0.639353 25:-0.993891 26:-0.703272 27:-0.724287 28:-0.126963 29:0.208373 30:-0.0242726 
1.50318713170015 0 1:-0.373395 2:-0.132388 3:-0.439514 4:-0.249282 5:-0.664693 6:-0.204571 7:-0.266123 8:-0.402223 9:-0.842945 10:-0.718326 11:-0.849633 12:-0.698906 13:0.0575382 14:0.272669 15:0.118587 16:-0.373395 17:-0.132388 18:-0.439514 19:-0.249282 20:-0.664693 21:-0.204571 22:-0.266123 23:-0.402223 24:-0.842945 25:-0.718326 26:-0.849633 27:-0.698906 28:0.0575382 29:0.272669 30:0.118587 
0.5555186832842256 0 1:0.535104 2:0.19203 3:-0.19072 4:0.219108 5:-0.257851 6:-0.0898832 7:0.487844 8:-0.153527 9:-0.288137 10:-0.709072 11:-0.256885 12:-0.226868 13:-0.0963233 14:0.391903 15:0.207807 16:0.535104 17:0.19203 18:-0.19072 19:0.219108 20:-0.257851 21:-0.0898832 22:0.487844 23:-0.153527 24:-0.288137 25:-0.709072 26:-0.256885 27:-0.226868 28:-0.0963233 29:0.391903 30:0.207807 
1.000366337489275 0 1:0.269866 2:0.366953 3:-1 4:0.308846 5:-0.256745 6:0.137178 7:0.643081 8:-0.129763 9:-0.604142 10:-0.651296 11:0.396123 12:-0.108195 13:0.187613 14:0.505869 15:0.0479927 16:0.269866 17:0.366953 18:-1 19:0.308846 20:-0.256745 21:0.137178 22:0.643081 23:-0.129763 24:-0.604142 25:-0.651296 26:0.396123 27:-0.108195 28:0.187613 29:0.505869 30:0.0479927 
29.17652310479119 0 1:-0.375241 2:0.176528 3:0.0355133 4:-0.290198 5:-0.666039 6:-0.323805 7:-0.185882 8:-0.334067 9:-0.830583 10:-0.888428 11:-0.603078 12:-0.712316 13:-0.074107 14:0.197695 15:-0.0197123 16:-0.375241 17:0.176528 18:0.0355133 19:-0.290198 20:-0.666039 21:-0.323805 22:-0.185882 23:-0.334067 24:-0.830583 25:-0.888428 26:-0.603078 27:-0.712316 28:-0.074107 29:0.197695 30:-0.0197123 
32 32 1:-0.087045 2:0.138073 3:-0.345745 4:-0.841612 5:-0.981928 6:-0.946811 7:-0.894212 8:-0.889081 9:-0.999755 10:-0.979797 11:-0.993906 12:-0.985214 13:-0.103654 14:0.190997 15:0.0864773 16:-0.087045 17:0.138073 18:-0.345745 19:-0.841612 20:-0.981928 21:-0.946811 22:-0.894212 23:-0.889081 24:-0.999755 25:-0.979797 26:-0.993906 27:-0.985214 28:-0.103654 29:0.190997 30:0.0864773 
0 32 1:-0.0891123 2:0.169374 3:-0.36281 4:-0.880538 5:-0.990866 6:-0.963069 7:-0.964796 8:-0.93073 9:-0.999916 10:-0.988829 11:-0.995711 12:-0.991543 13:-0.10301 14:0.191933 15:0.0865549 16:-0.0891123 17:0.169374 18:-0.36281 19:-0.880538 20:-0.990866 21:-0.963069 22:-0.964796 23:-0.93073 24:-0.999916 25:-0.988829 26:-0.995711 27:-0.991543 28:-0.10301 29:0.191933 30:0.0865549 
0 32 1:-0.087635 2:0.194085 3:-0.359123 4:-0.911966 5:-0.995245 6:-0.971092 7:-0.97549 8:-0.949206 9:-0.999925 10:-0.993871 11:-0.996496 12:-0.994961 13:-0.103051 14:0.190643 15:0.0864748 16:-0.087635 17:0.194085 18:-0.359123 19:-0.911966 20:-0.995245 21:-0.971092 22:-0.97549 23:-0.949206 24:-0.999925 25:-0.993871 26:-0.996496 27:-0.994961 28:-0.103051 29:0.190643 30:0.0864748 
32 32 1:-0.0870786 2:0.217042 3:-0.340779 4:-0.942399 5:-0.987654 6:-0.975427 7:-0.971448 8:-0.955201 9:-0.999837 10:-0.997213 11:-0.998412 12:-0.997673 13:-0.102865 14:0.188402 15:0.0864334 16:-0.0870786 17:0.217042 18:-0.340779 19:-0.942399 20:-0.987654 21:-0.975427 22:-0.971448 23:-0.955201 24:-0.999837 25:-0.997213 26:-0.998412 27:-0.997673 28:-0.102865 29:0.188402 30:0.0864334 
32 32 1:-0.0901786 2:0.237903 3:-0.350117 4:-0.95377 5:-0.976696 6:-0.976314 7:-0.974027 8:-0.977721 9:-0.9997 10:-0.999059 11:-0.997437 12:-0.998416 13:-0.102543 14:0.187813 15:0.0864622 16:-0.0901786 17:0.237903 18:-0.350117 19:-0.95377 20:-0.976696 21:-0.976314 22:-0.974027 23:-0.977721 24:-0.9997 25:-0.999059 26:-0.997437 27:-0.998416 28:-0.102543 29:0.187813 30:0.0864622 
32 32 1:-0.10354 2:0.248047 3:-0.343311 4:-0.955916 5:-0.96151 6:-0.976942 7:-0.948065 8:-0.950615 9:-0.999113 10:-0.999614 11:-0.997134 12:-0.998381 13:-0.102126 14:0.187401 15:0.086585 16:-0.10354 17:0.248047 18:-0.343311 19:-0.955916 20:-0.96151 21:-0.976942 22:-0.948065 23:-0.950615 24:-0.999113 25:-0.999614 26:-0.997134 27:-0.998381 28:-0.102126 29:0.187401 30:0.086585 
32 32 1:-0.119671 2:0.245042 3:-0.338181 4:-0.935718 5:-0.929729 6:-0.950915 7:-0.902922 8:-0.879358 9:-0.997011 10:-0.998892 11:-0.995208 12:-0.996278 13:-0.101116 14:0.187319 15:0.086571 16:-0.119671 17:0.245042 18:-0.338181 19:-0.935718 20:-0.929729 21:-0.950915 22:-0.902922 23:-0.879358 24:-0.997011 25:-0.998892 26:-0.995208 27:-0.996278 28:-0.101116 29:0.187319 30:0.086571 
32 32 1:-0.0940133 2:0.337341 3:-0.213251 4:-0.776977 5:-0.835214 6:-0.806914 7:-0.600266 8:-0.500397 9:-0.989853 10:-0.977394 11:-0.926312 12:-0.95535 13:-0.0922212 14:0.209327 15:0.0919472 16:-0.0940133 17:0.337341 18:-0.213251 19:-0.776977 20:-0.835214 21:-0.806914 22:-0.600266 23:-0.500397 24:-0.989853 25:-0.977394 26:-0.926312 27:-0.95535 28:-0.0922212 29:0.209327 30:0.0919472 
32 32 1:-0.112894 2:0.289214 3:-0.289954 4:-0.680459 5:-0.798866 6:-0.655044 7:-0.460385 8:-0.361358 9:-0.984358 10:-0.960648 11:-0.889216 12:-0.929334 13:-0.0851516 14:0.230411 15:0.10031 16:-0.112894 17:0.289214 18:-0.289954 19:-0.680459 20:-0.798866 21:-0.655044 22:-0.460385 23:-0.361358 24:-0.984358 25:-0.960648 26:-0.889216 27:-0.929334 28:-0.0851516 29:0.230411 30:0.10031 
32 28.92788234166663 1:-0.128897 2:0.0594843 3:-0.580289 4:-0.622182 5:-0.838579 6:-0.673555 7:-0.601535 8:-0.499167 9:-0.990053 10:-0.928692 11:-0.885086 12:-0.910643 13:-0.0922375 14:0.259351 15:0.0968853 16:-0.128897 17:0.0594843 18:-0.580289 19:-0.622182 20:-0.838579 21:-0.673555 22:-0.601535 23:-0.499167 24:-0.990053 25:-0.928692 26:-0.885086 27:-0.910643 28:-0.0922375 29:0.259351 30:0.0968853 
24.85529786915442 0 1:0.126121 2:0.275923 3:-0.287836 4:-0.363958 5:-0.560778 6:-0.376101 7:-0.409853 8:-0.14918 9:-0.818491 10:-0.845919 11:-0.812132 12:-0.753748 13:0.0428579 14:0.322871 15:0.190521 16:0.126121 17:0.275923 18:-0.287836 19:-0.363958 20:-0.560778 21:-0.376101 22:-0.409853 23:-0.14918 24:-0.818491 25:-0.845919 26:-0.812132 27:-0.753748 28:0.0428579 29:0.322871 30:0.190521 
8.099092937398932 0 1:0.397418 2:-0.00426756 3:-0.631567 4:-0.149858 5:-0.417761 6:-0.725563 7:0.023667 8:-0.495989 9:-0.525378 10:-0.890363 11:-0.738865 12:-0.619406 13:-0.282258 14:0.275122 15:-0.0695488 16:0.397418 17:-0.00426756 18:-0.631567 19:-0.149858 20:-0.417761 21:-0.725563 22:0.023667 23:-0.495989 24:-0.525378 25:-0.890363 26:-0.738865 27:-0.619406 28:-0.282258 29:0.275122 30:-0.0695488 
32 0 1:0.173547 2:0.102599 3:-0.0301379 4:-0.256661 5:-0.532876 6:-0.686539 7:-0.121249 8:-0.395128 9:-0.815011 10:-0.930122 11:-0.532709 12:-0.70628 13:-0.206429 14:0.222186 15:0.142856 16:0.173547 17:0.102599 18:-0.0301379 19:-0.256661 20:-0.532876 21:-0.686539 22:-0.121249 23:-0.395128 24:-0.815011 25:-0.930122 26:-0.532709 27:-0.70628 28:-0.206429 29:0.222186 30:0.142856 
0 6.750644371484862 1:-0.0375283 2:0.27815 3:-0.274737 4:-0.595583 5:-0.577793 6:-0.65059 7:-0.21241 8:-0.540462 9:-0.933224 10:-0.980961 11:-0.841341 12:-0.901373 13:-0.0738946 14:0.185727 15:0.0771512 16:-0.0375283 17:0.27815 18:-0.274737 19:-0.595583 20:-0.577793 21:-0.65059 22:-0.21241 23:-0.540462 24:-0.933224 25:-0.980961 26:-0.841341 27:-0.901373 28:-0.0738946 29:0.185727 30:0.0771512 
32 4.512128550306584 1:-0.363345 2:0.353031 3:-0.0823215 4:-0.52127 5:-0.429501 6:-0.849966 7:-0.742699 8:-0.494389 9:-0.796797 10:-0.986305 11:-0.922103 12:-0.869685 13:-0.129227 14:0.211849 15:0.0453779 16:-0.363345 17:0.353031 18:-0.0823215 19:-0.52127 20:-0.429501 21:-0.849966 22:-0.742699 23:-0.494389 24:-0.796797 25:-0.986305 26:-0.922103 27:-0.869685 28:-0.129227 29:0.211849 30:0.0453779 
32 0 1:-0.293663 2:0.287648 3:0.0210012 4:-0.50008 5:-0.544412 6:-0.818126 7:-0.597211 8:-0.472429 9:-0.849345 10:-0.989129 11:-0.813745 12:-0.857767 13:-0.135075 14:0.193134 15:0.0448337 16:-0.293663 17:0.287648 18:0.0210012 19:-0.50008 20:-0.544412 21:-0.818126 22:-0.597211 23:-0.472429 24:-0.849345 25:-0.989129 26:-0.813745 27:-0.857767 28:-0.135075 29:0.193134 30:0.0448337 
32 32 1:-0.00210886 2:0.131933 3:-0.143123 4:-0.55134 5:-0.60108 6:-0.7621 7:-0.427371 8:-0.599125 9:-0.949925 10:-0.957812 11:-0.821438 12:-0.887736 13:-0.153233 14:0.201969 15:0.0636981 16:-0.00210886 17:0.131933 18:-0.143123 19:-0.55134 20:-0.60108 21:-0.7621 22:-0.427371 23:-0.599125 24:-0.949925 25:-0.957812 26:-0.821438 27:-0.887736 28:-0.153233 29:0.201969 30:0.0636981 
32 32 1:0.174441 2:0.11127 3:-0.424564 4:-0.557237 5:-0.767491 6:-0.753593 7:-0.485937 8:-0.755347 9:-0.870746 10:-0.957809 11:-0.9495 12:-0.895957 13:-0.161388 14:0.211948 15:0.049786 16:0.174441 17:0.11127 18:-0.424564 19:-0.557237 20:-0.767491 21:-0.753593 22:-0.485937 23:-0.755347 24:-0.870746 25:-0.957809 26:-0.9495 27:-0.895957 28:-0.161388 29:0.211948 30:0.049786 
32 32 1:0.0458322 2:0.272211 3:-0.213237 4:-0.614724 5:-0.634329 6:-0.786021 7:-0.582008 8:-0.635192 9:-0.896954 10:-0.98905 11:-0.911867 12:-0.914346 13:-0.124923 14:0.206765 15:0.0554221 16:0.0458322 17:0.272211 18:-0.213237 19:-0.614724 20:-0.634329 21:-0.786021 22:-0.582008 23:-0.635192 24:-0.896954 25:-0.98905 26:-0.911867 27:-0.914346 28:-0.124923 29:0.206765 30:0.0554221 
10.90904952704476 0 1:-0.105939 2:0.394577 3:-0.404728 4:-0.538769 5:-0.54452 6:-0.384643 7:-0.579344 8:-0.355965 9:-0.973439 10:-0.863778 11:-0.913595 12:-0.872553 13:-0.0629773 14:0.185749 15:0.0820998 16:-0.105939 17:0.394577 18:-0.404728 19:-0.538769 20:-0.54452 21:-0.384643 22:-0.579344 23:-0.355965 24:-0.973439 25:-0.863778 26:-0.913595 27:-0.872553 28:-0.0629773 29:0.185749 30:0.0820998 
32 0 1:-0.0792006 2:0.434595 3:-0.0165169 4:-0.512961 5:-0.758035 6:-0.486495 7:-0.408486 8:-0.316023 9:-0.979888 10:-0.901357 11:-0.7868 12:-0.854353 13:-0.071576 14:0.203576 15:0.0922218 16:-0.0792006 17:0.434595 18:-0.0165169 19:-0.512961 20:-0.758035 21:-0.486495 22:-0.408486 23:-0.316023 24:-0.979888 25:-0.901357 26:-0.7868 27:-0.854353 28:-0.071576 29:0.203576 30:0.0922218 
0 32 1:-0.101989 2:0.304627 3:-0.133913 4:-0.598983 5:-0.675964 6:-0.655574 7:-0.356461 8:-0.405914 9:-0.964106 10:-0.975855 11:-0.796921 12:-0.896932 13:-0.0737421 14:0.207961 15:0.107579 16:-0.101989 17:0.304627 18:-0.133913 19:-0.598983 20:-0.675964 21:-0.655574 22:-0.356461 23:-0.405914 24:-0.964106 25:-0.975855 26:-0.796921 27:-0.896932 28:-0.0737421 29:0.207961 30:0.107579 
32 0 1:-0.0396003 2:0.250731 3:-0.550812 4:-0.608557 5:-0.508664 6:-0.710161 7:-0.468502 8:-0.457789 9:-0.909315 10:-0.976366 11:-0.892785 12:-0.905488 13:-0.0719069 14:0.194516 15:0.0545698 16:-0.0396003 17:0.250731 18:-0.550812 19:-0.608557 20:-0.508664 21:-0.710161 22:-0.468502 23:-0.457789 24:-0.909315 25:-0.976366 26:-0.892785 27:-0.905488 28:-0.0719069 29:0.194516 30:0.0545698 
32 32 1:0.0714068 2:0.125569 3:-0.467326 4:-0.578209 5:-0.551501 6:-0.782394 7:-0.651495 8:-0.577308 9:-0.898178 10:-0.961341 11:-0.917012 12:-0.899482 13:-0.122398 14:0.188571 15:0.0461889 16:0.0714068 17:0.125569 18:-0.467326 19:-0.578209 20:-0.551501 21:-0.782394 22:-0.651495 23:-0.577308 24:-0.898178 25:-0.961341 26:-0.917012 27:-0.899482 28:-0.122398 29:0.188571 30:0.0461889 
32 32 1:-0.0928301 2:0.144401 3:-0.346681 4:-0.669403 5:-0.595012 6:-0.778124 7:-0.659808 8:-0.623914 9:-0.921667 10:-0.967366 11:-0.975719 12:-0.934789 13:-0.129982 14:0.18389 15:0.103139 16:-0.0928301 17:0.144401 18:-0.346681 19:-0.669403 20:-0.595012 21:-0.778124 22:-0.659808 23:-0.623914 24:-0.921667 25:-0.967366 26:-0.975719 27:-0.934789 28:-0.129982 29:0.18389 30:0.103139 
32 32 1:-0.256361 2:0.263591 3:-0.182562 4:-0.675069 5:-0.653386 6:-0.822569 7:-0.601186 8:-0.61274 9:-0.94104 10:-0.997278 11:-0.902954 12:-0.936825 13:-0.10313 14:0.192195 15:0.0775564 16:-0.256361 17:0.263591 18:-0.182562 19:-0.675069 20:-0.653386 21:-0.822569 22:-0.601186 23:-0.61274 24:-0.94104 25:-0.997278 26:-0.902954 27:-0.936825 28:-0.10313 29:0.192195 30:0.0775564 
32 32 1:-0.0908157 2:0.260172 3:-0.334066 4:-0.984202 5:-0.989447 6:-0.993797 7:-0.994446 8:-0.985053 9:-0.999911 10:-0.999971 11:-0.99914 12:-0.99968 13:-0.102434 14:0.187012 15:0.0866801 16:-0.0908157 17:0.260172 18:-0.334066 19:-0.984202 20:-0.989447 21:-0.993797 22:-0.994446 23:-0.985053 24:-0.999911 25:-0.999971 26:-0.99914 27:-0.99968 28:-0.102434 29:0.187012 30:0.0866801 
32 32 1:-0.085909 2:0.262971 3:-0.328968 4:-0.987371 5:-0.990011 6:-0.995209 7:-0.992611 8:-0.983222 9:-0.999868 10:-0.999984 11:-0.999365 12:-0.999747 13:-0.102438 14:0.186958 15:0.0865846 16:-0.085909 17:0.262971 18:-0.328968 19:-0.987371 20:-0.990011 21:-0.995209 22:-0.992611 23:-0.983222 24:-0.999868 25:-0.999984 26:-0.999365 27:-0.999747 28:-0.102438 29:0.186958 30:0.0865846 
32 32 1:-0.0909547 2:0.27181 3:-0.324566 4:-0.986979 5:-0.989657 6:-0.989539 7:-0.990026 8:-0.981529 9:-0.999903 10:-0.999823 11:-0.999578 12:-0.999738 13:-0.102438 14:0.186765 15:0.0867075 16:-0.0909547 17:0.27181 18:-0.324566 19:-0.986979 20:-0.989657 21:-0.989539 22:-0.990026 23:-0.981529 24:-0.999903 25:-0.999823 26:-0.999578 27:-0.999738 28:-0.102438 29:0.186765 30:0.0867075 
32 32 1:-0.0939343 2:0.27894 3:-0.329925 4:-0.977645 5:-0.97968 6:-0.986543 7:-0.9846 8:-0.97036 9:-0.999791 10:-0.999629 11:-0.999221 12:-0.999439 13:-0.102391 14:0.186528 15:0.086654 16:-0.0939343 17:0.27894 18:-0.329925 19:-0.977645 20:-0.97968 21:-0.986543 22:-0.9846 23:-0.97036 24:-0.999791 25:-0.999629 26:-0.999221 27:-0.999439 28:-0.102391 29:0.186528 30:0.086654 
32 32 1:-0.105017 2:0.302667 3:-0.366372 4:-0.930401 5:-0.962093 6:-0.951349 7:-0.951204 8:-0.892729 9:-0.999027 10:-0.996965 11:-0.994217 12:-0.995667 13:-0.103633 14:0.183683 15:0.0876019 16:-0.105017 17:0.302667 18:-0.366372 19:-0.930401 20:-0.962093 21:-0.951349 22:-0.951204 23:-0.892729 24:-0.999027 25:-0.996965 26:-0.994217 27:-0.995667 28:-0.103633 29:0.183683 30:0.0876019 
32 32 1:-0.131761 2:0.328095 3:-0.374905 4:-0.883608 5:-0.944494 6:-0.928432 7:-0.930171 8:-0.890916 9:-0.996259 10:-0.99355 11:-0.992983 12:-0.991822 13:-0.106013 14:0.182363 15:0.0888748 16:-0.131761 17:0.328095 18:-0.374905 19:-0.883608 20:-0.944494 21:-0.928432 22:-0.930171 23:-0.890916 24:-0.996259 25:-0.99355 26:-0.992983 27:-0.991822 28:-0.106013 29:0.182363 30:0.0888748 
32 32 1:-0.135274 2:0.289197 3:-0.309316 4:-0.887528 5:-0.869292 6:-0.903244 7:-0.904982 8:-0.878189 9:-0.991154 10:-0.995489 11:-0.99582 12:-0.991654 13:-0.102595 14:0.18484 15:0.0864026 16:-0.135274 17:0.289197 18:-0.309316 19:-0.887528 20:-0.869292 21:-0.903244 22:-0.904982 23:-0.878189 24:-0.991154 25:-0.995489 26:-0.99582 27:-0.991654 28:-0.102595 29:0.18484 30:0.0864026 
32 32 1:-0.0709003 2:0.251268 3:-0.30631 4:-0.861819 5:-0.827933 6:-0.882555 7:-0.796383 8:-0.818063 9:-0.986803 10:-0.997103 11:-0.985424 12:-0.98698 13:-0.0984248 14:0.187032 15:0.0838743 16:-0.0709003 17:0.251268 18:-0.30631 19:-0.861819 20:-0.827933 21:-0.882555 22:-0.796383 23:-0.818063 24:-0.986803 25:-0.997103 26:-0.985424 27:-0.98698 28:-0.0984248 29:0.187032 30:0.0838743 
32 32 1:-0.0300552 2:0.30658 3:-0.215895 4:-0.754167 5:-0.830132 6:-0.826943 7:-0.579525 8:-0.623935 9:-0.985729 10:-0.987858 11:-0.923462 12:-0.958942 13:-0.0944064 14:0.19126 15:0.0922559 16:-0.0300552 17:0.30658 18:-0.215895 19:-0.754167 20:-0.830132 21:-0.826943 22:-0.579525 23:-0.623935 24:-0.985729 25:-0.987858 26:-0.923462 27:-0.958942 28:-0.0944064 29:0.19126 30:0.0922559 
0 32 1:-0.123922 2:0.351493 3:-0.382934 4:-0.641816 5:-0.752976 6:-0.828877 7:-0.455015 8:-0.629471 9:-0.972649 10:-0.983974 11:-0.856553 12:-0.92692 13:-0.0999721 14:0.17588 15:0.114797 16:-0.123922 17:0.351493 18:-0.382934 19:-0.641816 20:-0.752976 21:-0.828877 22:-0.455015 23:-0.629471 24:-0.972649 25:-0.983974 26:-0.856553 27:-0.92692 28:-0.0999721 29:0.17588 30:0.114797 
0 32 1:-0.229098 2:0.379896 3:-0.342539 4:-0.561757 5:-0.762949 6:-0.814005 7:-0.219691 8:-0.504826 9:-0.955669 10:-0.972839 11:-0.788152 12:-0.88805 13:-0.122511 14:0.208042 15:0.087529 16:-0.229098 17:0.379896 18:-0.342539 19:-0.561757 20:-0.762949 21:-0.814005 22:-0.219691 23:-0.504826 24:-0.955669 25:-0.972839 26:-0.788152 27:-0.88805 28:-0.122511 29:0.208042 30:0.087529 
9.291791822519894 0 1:-0.0156035 2:0.407473 3:0.091166 4:-0.269246 5:-0.178171 6:0.0256563 7:0.153129 8:-0.0410202 9:-0.71057 10:-0.910441 11:-0.594099 12:-0.667075 13:0.0332024 14:0.326046 15:0.269344 16:-0.0156035 17:0.407473 18:0.091166 19:-0.269246 20:-0.178171 21:0.0256563 22:0.153129 23:-0.0410202 24:-0.71057 25:-0.910441 26:-0.594099 27:-0.667075 28:0.0332024 29:0.326046 30:0.269344 
32 32 1:-0.0534773 2:0.206271 3:-0.187222 4:-0.864356 5:-0.950032 6:-0.929324 7:-0.879009 8:-0.803019 9:-0.996381 10:-0.994609 11:-0.978037 12:-0.987283 13:-0.105172 14:0.178534 15:0.0909411 16:-0.0534773 17:0.206271 18:-0.187222 19:-0.864356 20:-0.950032 21:-0.929324 22:-0.879009 23:-0.803019 24:-0.996381 25:-0.994609 26:-0.978037 27:-0.987283 28:-0.105172 29:0.178534 30:0.0909411 
32 32 1:-0.0595467 2:0.228325 3:-0.227282 4:-0.914397 5:-0.984331 6:-0.96994 7:-0.946549 8:-0.909926 9:-0.997968 10:-0.998333 11:-0.991282 12:-0.994995 13:-0.104324 14:0.184101 15:0.0896829 16:-0.0595467 17:0.228325 18:-0.227282 19:-0.914397 20:-0.984331 21:-0.96994 22:-0.946549 23:-0.909926 24:-0.997968 25:-0.998333 26:-0.991282 27:-0.994995 28:-0.104324 29:0.184101 30:0.0896829 
32 32 1:-0.0686074 2:0.23738 3:-0.256553 4:-0.945028 5:-0.986191 6:-0.983243 7:-0.966353 8:-0.946261 9:-0.998885 10:-0.999132 11:-0.996688 12:-0.997818 13:-0.103448 14:0.185616 15:0.0879968 16:-0.0686074 17:0.23738 18:-0.256553 19:-0.945028 20:-0.986191 21:-0.983243 22:-0.966353 23:-0.946261 24:-0.998885 25:-0.999132 26:-0.996688 27:-0.997818 28:-0.103448 29:0.185616 30:0.0879968 
0 32 1:-0.0761909 2:0.243227 3:-0.266536 4:-0.959502 5:-0.98586 6:-0.990799 7:-0.982941 8:-0.977217 9:-0.999405 10:-0.999479 11:-0.997903 12:-0.998703 13:-0.102987 14:0.186171 15:0.0874393 16:-0.0761909 17:0.243227 18:-0.266536 19:-0.959502 20:-0.98586 21:-0.990799 22:-0.982941 23:-0.977217 24:-0.999405 25:-0.999479 26:-0.997903 27:-0.998703 28:-0.102987 29:0.186171 30:0.0874393 
0 32 1:-0.0809624 2:0.251702 3:-0.272377 4:-0.971923 5:-0.993007 6:-0.990064 7:-0.995867 8:-0.987824 9:-0.999716 10:-0.999807 11:-0.998584 12:-0.999291 13:-0.102676 14:0.186579 15:0.0871981 16:-0.0809624 17:0.251702 18:-0.272377 19:-0.971923 20:-0.993007 21:-0.990064 22:-0.995867 23:-0.987824 24:-0.999716 25:-0.999807 26:-0.998584 27:-0.999291 28:-0.102676 29:0.186579 30:0.0871981 
32 32 1:-0.0930416 2:0.259889 3:-0.27828 4:-0.9784 5:-0.982451 6:-0.992338 7:-0.990276 8:-0.986546 9:-0.999736 10:-0.999962 11:-0.998935 12:-0.999521 13:-0.102527 14:0.186844 15:0.0868649 16:-0.0930416 17:0.259889 18:-0.27828 19:-0.9784 20:-0.982451 21:-0.992338 22:-0.990276 23:-0.986546 24:-0.999736 25:-0.999962 26:-0.998935 27:-0.999521 28:-0.102527 29:0.186844 30:0.0868649 
32 32 1:-0.104905 2:0.26479 3:-0.279616 4:-0.97328 5:-0.979342 6:-0.974658 7:-0.974218 8:-0.974689 9:-0.999638 10:-0.999792 11:-0.998703 12:-0.999288 13:-0.10252 14:0.186811 15:0.0864893 16:-0.104905 17:0.26479 18:-0.279616 19:-0.97328 20:-0.979342 21:-0.974658 22:-0.974218 23:-0.974689 24:-0.999638 25:-0.999792 26:-0.998703 27:-0.999288 28:-0.10252 29:0.186811 30:0.0864893 
32 32 1:-0.104696 2:0.252936 3:-0.306602 4:-0.9613 5:-0.966222 6:-0.960801 7:-0.942239 8:-0.937395 9:-0.99927 10:-0.999312 11:-0.997984 12:-0.998565 13:-0.102401 14:0.186893 15:0.0868148 16:-0.104696 17:0.252936 18:-0.306602 19:-0.9613 20:-0.966222 21:-0.960801 22:-0.942239 23:-0.937395 24:-0.99927 25:-0.999312 26:-0.997984 27:-0.998565 28:-0.102401 29:0.186893 30:0.0868148 
32 32 1:-0.0755009 2:0.259369 3:-0.307038 4:-0.929795 5:-0.897332 6:-0.918464 7:-0.929475 8:-0.876641 9:-0.995055 10:-0.997994 11:-0.99784 12:-0.995735 13:-0.101657 14:0.187196 15:0.087942 16:-0.0755009 17:0.259369 18:-0.307038 19:-0.929795 20:-0.897332 21:-0.918464 22:-0.929475 23:-0.876641 24:-0.995055 25:-0.997994 26:-0.99784 27:-0.995735 28:-0.101657 29:0.187196 30:0.087942 
32 32 1:-0.0467526 2:0.310753 3:-0.373323 4:-0.852536 5:-0.862395 6:-0.90398 7:-0.846399 8:-0.829363 9:-0.990457 10:-0.994143 11:-0.981753 12:-0.985546 13:-0.0990081 14:0.181139 15:0.0846189 16:-0.0467526 17:0.310753 18:-0.373323 19:-0.852536 20:-0.862395 21:-0.90398 22:-0.846399 23:-0.829363 24:-0.990457 25:-0.994143 26:-0.981753 27:-0.985546 28:-0.0990081 29:0.181139 30:0.0846189 
32 32 1:-0.06139 2:0.338063 3:-0.365007 4:-0.832394 5:-0.886632 6:-0.932357 7:-0.738975 8:-0.789404 9:-0.993549 10:-0.992242 11:-0.971798 12:-0.9823 13:-0.0982065 14:0.183497 15:0.0862883 16:-0.06139 17:0.338063 18:-0.365007 19:-0.832394 20:-0.886632 21:-0.932357 22:-0.738975 23:-0.789404 24:-0.993549 25:-0.992242 26:-0.971798 27:-0.9823 28:-0.0982065 29:0.183497 30:0.0862883 
32 32 1:-0.115231 2:0.322828 3:-0.161404 4:-0.77361 5:-0.789926 6:-0.849747 7:-0.642527 8:-0.60257 9:-0.983288 10:-0.989342 11:-0.933251 12:-0.962172 13:-0.0953968 14:0.189596 15:0.0745511 16:-0.115231 17:0.322828 18:-0.161404 19:-0.77361 20:-0.789926 21:-0.849747 22:-0.642527 23:-0.60257 24:-0.983288 25:-0.989342 26:-0.933251 27:-0.962172 28:-0.0953968 29:0.189596 30:0.0745511 
32 32 1:-0.121834 2:0.30708 3:-0.280587 4:-0.710589 5:-0.765148 6:-0.76195 7:-0.548896 8:-0.589529 9:-0.980512 10:-0.982549 11:-0.910316 12:-0.948592 13:-0.0937472 14:0.190527 15:0.0710757 16:-0.121834 17:0.30708 18:-0.280587 19:-0.710589 20:-0.765148 21:-0.76195 22:-0.548896 23:-0.589529 24:-0.980512 25:-0.982549 26:-0.910316 27:-0.948592 28:-0.0937472 29:0.190527 30:0.0710757 
32 32 1:-0.061776 2:0.195753 3:-0.58026 4:-0.664218 5:-0.842604 6:-0.747331 7:-0.559664 8:-0.645608 9:-0.989969 10:-0.970522 11:-0.875261 12:-0.933179 13:-0.106792 14:0.221833 15:0.0800649 16:-0.061776 17:0.195753 18:-0.58026 19:-0.664218 20:-0.842604 21:-0.747331 22:-0.559664 23:-0.645608 24:-0.989969 25:-0.970522 26:-0.875261 27:-0.933179 28:-0.106792 29:0.221833 30:0.0800649 
0 28.71945297179369 1:0.00713647 2:0.243008 3:-0.240227 4:-0.536865 5:-0.871491 6:-0.642796 7:-0.282567 8:-0.364228 9:-0.976898 10:-0.958355 11:-0.732476 12:-0.86933 13:-0.0911267 14:0.267638 15:0.119955 16:0.00713647 17:0.243008 18:-0.240227 19:-0.536865 20:-0.871491 21:-0.642796 22:-0.282567 23:-0.364228 24:-0.976898 25:-0.958355 26:-0.732476 27:-0.86933 28:-0.0911267 29:0.267638 30:0.119955 
12.72236814832179 0 1:-0.0154299 2:0.385524 3:-0.0362656 4:-0.59615 5:-0.74227 6:-0.647458 7:-0.211978 8:-0.297467 9:-0.965905 10:-0.963064 11:-0.790314 12:-0.887486 13:-0.0701728 14:0.247466 15:0.137155 16:-0.0154299 17:0.385524 18:-0.0362656 19:-0.59615 20:-0.74227 21:-0.647458 22:-0.211978 23:-0.297467 24:-0.965905 25:-0.963064 26:-0.790314 27:-0.887486 28:-0.0701728 29:0.247466 30:0.137155 
9.748026826695714 0 1:-0.246048 2:0.266094 3:-0.443597 4:-0.596183 5:-0.599313 6:-0.751084 7:-0.508337 8:-0.458281 9:-0.888845 10:-0.976243 11:-0.905116 12:-0.900235 13:-0.0592946 14:0.214973 15:0.152392 16:-0.246048 17:0.266094 18:-0.443597 19:-0.596183 20:-0.599313 21:-0.751084 22:-0.508337 23:-0.458281 24:-0.888845 25:-0.976243 26:-0.905116 27:-0.900235 28:-0.0592946 29:0.214973 30:0.152392 
32 0 1:0.0424244 2:-0.0988285 3:-0.694984 4:-0.365394 5:-0.799106 6:-0.538676 7:-0.34999 8:-0.335666 9:-0.965598 10:-0.797762 11:-0.743243 12:-0.767936 13:-0.173627 14:0.354787 15:0.0381346 16:0.0424244 17:-0.0988285 18:-0.694984 19:-0.365394 20:-0.799106 21:-0.538676 22:-0.34999 23:-0.335666 24:-0.965598 25:-0.797762 26:-0.743243 27:-0.767936 28:-0.173627 29:0.354787 30:0.0381346 
2.432736907120457 0 1:-0.249366 2:0.328487 3:0.27723 4:-0.150913 5:-0.32728 6:-0.530618 7:-0.0739244 8:-0.451207 9:-0.790338 10:-0.93261 11:-0.326988 12:-0.624028 13:-0.189028 14:0.260852 15:0.039326 16:-0.249366 17:0.328487 18:0.27723 19:-0.150913 20:-0.32728 21:-0.530618 22:-0.0739244 23:-0.451207 24:-0.790338 25:-0.93261 26:-0.326988 27:-0.624028 28:-0.189028 29:0.260852 30:0.039326 
5.273292334879894 0 1:0.0510702 2:-0.025574 3:-0.146045 4:-0.176279 5:-0.468157 6:-0.383837 7:-0.0658209 8:-0.602918 9:-0.945408 10:-0.761054 11:-0.501743 12:-0.650796 13:-0.188122 14:0.317508 15:0.100573 16:0.0510702 17:-0.025574 18:-0.146045 19:-0.176279 20:-0.468157 21:-0.383837 22:-0.0658209 23:-0.602918 24:-0.945408 25:-0.761054 26:-0.501743 27:-0.650796 28:-0.188122 29:0.317508 30:0.100573 
17.52269078098211 0 1:0.0866789 2:0.115318 3:-0.18712 4:-0.344159 5:-0.671543 6:-0.497155 7:-0.174738 8:-0.440914 9:-0.911275 10:-0.876714 11:-0.669129 12:-0.765753 13:-0.144345 14:0.283538 15:0.0865107 16:0.0866789 17:0.115318 18:-0.18712 19:-0.344159 20:-0.671543 21:-0.497155 22:-0.174738 23:-0.440914 24:-0.911275 25:-0.876714 26:-0.669129 27:-0.765753 28:-0.144345 29:0.283538 30:0.0865107 
0 32 1:-0.0579301 2:0.148172 3:-0.328207 4:-0.853873 5:-0.940406 6:-0.948859 7:-0.957503 8:-0.897543 9:-0.996555 10:-0.982869 11:-0.99857 12:-0.987278 13:-0.109687 14:0.189372 15:0.0858941 16:-0.0579301 17:0.148172 18:-0.328207 19:-0.853873 20:-0.940406 21:-0.948859 22:-0.957503 23:-0.897543 24:-0.996555 25:-0.982869 26:-0.99857 27:-0.987278 28:-0.109687 29:0.189372 30:0.0858941 
32 32 1:-0.0753884 2:0.185644 3:-0.309835 4:-0.908355 5:-0.967735 6:-0.94822 7:-0.966205 8:-0.907787 9:-0.999349 10:-0.991807 11:-0.999347 12:-0.994412 13:-0.104451 14:0.187246 15:0.0866853 16:-0.0753884 17:0.185644 18:-0.309835 19:-0.908355 20:-0.967735 21:-0.94822 22:-0.966205 23:-0.907787 24:-0.999349 25:-0.991807 26:-0.999347 27:-0.994412 28:-0.104451 29:0.187246 30:0.0866853 
0 32 1:-0.0708267 2:0.21299 3:-0.304317 4:-0.940706 5:-0.993758 6:-0.969469 7:-0.985481 8:-0.954147 9:-0.999144 10:-0.996793 11:-0.99984 12:-0.997592 13:-0.104267 14:0.186767 15:0.0868512 16:-0.0708267 17:0.21299 18:-0.304317 19:-0.940706 20:-0.993758 21:-0.969469 22:-0.985481 23:-0.954147 24:-0.999144 25:-0.996793 26:-0.99984 27:-0.997592 28:-0.104267 29:0.186767 30:0.0868512 
0 32 1:-0.0746316 2:0.22563 3:-0.304821 4:-0.954896 5:-0.988622 6:-0.986182 7:-0.973278 8:-0.980282 9:-0.999322 10:-0.998248 11:-0.99954 12:-0.998474 13:-0.103626 14:0.186864 15:0.0868623 16:-0.0746316 17:0.22563 18:-0.304821 19:-0.954896 20:-0.988622 21:-0.986182 22:-0.973278 23:-0.980282 24:-0.999322 25:-0.998248 26:-0.99954 27:-0.998474 28:-0.103626 29:0.186864 30:0.0868623 
32 32 1:-0.0860163 2:0.229251 3:-0.30314 4:-0.96209 5:-0.985895 6:-0.986591 7:-0.969882 8:-0.976856 9:-0.99978 10:-0.998544 11:-0.999438 12:-0.998836 13:-0.102813 14:0.186746 15:0.086835 16:-0.0860163 17:0.229251 18:-0.30314 19:-0.96209 20:-0.985895 21:-0.986591 22:-0.969882 23:-0.976856 24:-0.99978 25:-0.998544 26:-0.999438 27:-0.998836 28:-0.102813 29:0.186746 30:0.086835 
32 32 1:-0.0830029 2:0.243387 3:-0.313061 4:-0.970253 5:-0.981628 6:-0.97275 7:-0.977938 8:-0.98003 9:-0.999603 10:-0.999162 11:-0.999578 12:-0.999187 13:-0.102451 14:0.186857 15:0.0866002 16:-0.0830029 17:0.243387 18:-0.313061 19:-0.970253 20:-0.981628 21:-0.97275 22:-0.977938 23:-0.98003 24:-0.999603 25:-0.999162 26:-0.999578 27:-0.999187 28:-0.102451 29:0.186857 30:0.0866002 
32 32 1:-0.0764986 2:0.256685 3:-0.310728 4:-0.98021 5:-0.978848 6:-0.973866 7:-0.984992 8:-0.986273 9:-0.99937 10:-0.999861 11:-0.999764 12:-0.999579 13:-0.10248 14:0.18694 15:0.086661 16:-0.0764986 17:0.256685 18:-0.310728 19:-0.98021 20:-0.978848 21:-0.973866 22:-0.984992 23:-0.986273 24:-0.99937 25:-0.999861 26:-0.999764 27:-0.999579 28:-0.10248 29:0.18694 30:0.086661 
32 32 1:-0.0728157 2:0.258104 3:-0.316785 4:-0.975219 5:-0.983861 6:-0.989028 7:-0.972583 8:-0.974459 9:-0.999134 10:-0.99992 11:-0.999329 12:-0.999353 13:-0.102499 14:0.186892 15:0.0864066 16:-0.0728157 17:0.258104 18:-0.316785 19:-0.975219 20:-0.983861 21:-0.989028 22:-0.972583 23:-0.974459 24:-0.999134 25:-0.99992 26:-0.999329 27:-0.999353 28:-0.102499 29:0.186892 30:0.0864066 
32 32 1:-0.0731922 2:0.256356 3:-0.333138 4:-0.948949 5:-0.957142 6:-0.955919 7:-0.911576 8:-0.916454 9:-0.998563 10:-0.99936 11:-0.996192 12:-0.997636 13:-0.102767 14:0.18654 15:0.0863003 16:-0.0731922 17:0.256356 18:-0.333138 19:-0.948949 20:-0.957142 21:-0.955919 22:-0.911576 23:-0.916454 24:-0.998563 25:-0.99936 26:-0.996192 27:-0.997636 28:-0.102767 29:0.18654 30:0.0863003 
32 32 1:-0.0987983 2:0.275623 3:-0.340094 4:-0.913593 5:-0.926714 6:-0.929525 7:-0.855312 8:-0.882571 9:-0.997667 10:-0.998043 11:-0.990951 12:-0.994558 13:-0.103642 14:0.185953 15:0.088648 16:-0.0987983 17:0.275623 18:-0.340094 19:-0.913593 20:-0.926714 21:-0.929525 22:-0.855312 23:-0.882571 24:-0.997667 25:-0.998043 26:-0.990951 27:-0.994558 28:-0.103642 29:0.185953 30:0.088648 
32 32 1:-0.146826 2:0.349328 3:-0.253528 4:-0.815125 5:-0.924066 6:-0.880402 7:-0.731973 8:-0.743331 9:-0.992666 10:-0.985517 11:-0.967003 12:-0.976019 13:-0.112803 14:0.198078 15:0.08235 16:-0.146826 17:0.349328 18:-0.253528 19:-0.815125 20:-0.924066 21:-0.880402 22:-0.731973 23:-0.743331 24:-0.992666 25:-0.985517 26:-0.967003 27:-0.976019 28:-0.112803 29:0.198078 30:0.08235 
32 32 1:-0.137979 2:0.34084 3:-0.140567 4:-0.729749 5:-0.912285 6:-0.833781 7:-0.561408 8:-0.629389 9:-0.993365 10:-0.984379 11:-0.909675 12:-0.955479 13:-0.112307 14:0.206019 15:0.0799359 16:-0.137979 17:0.34084 18:-0.140567 19:-0.729749 20:-0.912285 21:-0.833781 22:-0.561408 23:-0.629389 24:-0.993365 25:-0.984379 26:-0.909675 27:-0.955479 28:-0.112307 29:0.206019 30:0.0799359 
5.986349440233301 32 1:-0.123945 2:0.190367 3:-0.44608 4:-0.626708 5:-0.879494 6:-0.792571 7:-0.424177 8:-0.6217 9:-0.99402 10:-0.978865 11:-0.810786 12:-0.917582 13:-0.0968094 14:0.230866 15:0.098152 16:-0.123945 17:0.190367 18:-0.44608 19:-0.626708 20:-0.879494 21:-0.792571 22:-0.424177 23:-0.6217 24:-0.99402 25:-0.978865 26:-0.810786 27:-0.917582 28:-0.0968094 29:0.230866 30:0.098152 
0 32 1:-0.000136734 2:0.374227 3:-0.0679701 4:-0.561507 5:-0.82023 6:-0.629328 7:-0.234015 8:-0.44073 9:-0.979906 10:-0.94676 11:-0.792573 12:-0.88464 13:-0.078979 14:0.258797 15:0.119213 16:-0.000136734 17:0.374227 18:-0.0679701 19:-0.561507 20:-0.82023 21:-0.629328 22:-0.234015 23:-0.44073 24:-0.979906 25:-0.94676 26:-0.792573 27:-0.88464 28:-0.078979 29:0.258797 30:0.119213 
32 0 1:-0.0503508 2:0.040636 3:-0.551484 4:-0.554674 5:-0.753901 6:-0.636776 7:-0.41539 8:-0.435317 9:-0.989062 10:-0.918244 11:-0.82494 12:-0.882534 13:-0.117068 14:0.263191 15:0.0795206 16:-0.0503508 17:0.040636 18:-0.551484 19:-0.554674 20:-0.753901 21:-0.636776 22:-0.41539 23:-0.435317 24:-0.989062 25:-0.918244 26:-0.82494 27:-0.882534 28:-0.117068 29:0.263191 30:0.0795206 
3.313420630211074 0 1:-0.316839 2:0.236775 3:-0.437688 4:-0.513304 5:-0.519706 6:-0.649151 7:-0.408821 8:-0.19595 9:-0.829377 10:-0.970273 11:-0.864904 12:-0.854741 13:-0.0998366 14:0.221491 15:0.11971 16:-0.316839 17:0.236775 18:-0.437688 19:-0.513304 20:-0.519706 21:-0.649151 22:-0.408821 23:-0.19595 24:-0.829377 25:-0.970273 26:-0.864904 27:-0.854741 28:-0.0998366 29:0.221491 30:0.11971 
32 32 1:-0.0644691 2:0.260739 3:-0.306631 4:-0.969858 5:-0.980114 6:-0.991535 7:-0.978627 8:-0.976606 9:-0.998425 10:-0.999962 11:-0.999673 12:-0.999171 13:-0.102455 14:0.186942 15:0.0868023 16:-0.0644691 17:0.260739 18:-0.306631 19:-0.969858 20:-0.980114 21:-0.991535 22:-0.978627 23:-0.976606 24:-0.998425 25:-0.999962 26:-0.999673 27:-0.999171 28:-0.102455 29:0.186942 30:0.0868023 
32 32 1:-0.0738664 2:0.263448 3:-0.308722 4:-0.973048 5:-0.971502 6:-0.992486 7:-0.96574 8:-0.964475 9:-0.998803 10:-0.999976 11:-0.999306 12:-0.999226 13:-0.102427 14:0.18688 15:0.0869503 16:-0.0738664 17:0.263448 18:-0.308722 19:-0.973048 20:-0.971502 21:-0.992486 22:-0.96574 23:-0.964475 24:-0.998803 25:-0.999976 26:-0.999306 27:-0.999226 28:-0.102427 29:0.18688 30:0.0869503 
32 32 1:-0.104913 2:0.265513 3:-0.281734 4:-0.958473 5:-0.955311 6:-0.977772 7:-0.91814 8:-0.902823 9:-0.999037 10:-0.999819 11:-0.99567 12:-0.997959 13:-0.102362 14:0.186826 15:0.0858386 16:-0.104913 17:0.265513 18:-0.281734 19:-0.958473 20:-0.955311 21:-0.977772 22:-0.91814 23:-0.902823 24:-0.999037 25:-0.999819 26:-0.99567 27:-0.997959 28:-0.102362 29:0.186826 30:0.0858386 
32 32 1:-0.118146 2:0.264633 3:-0.293981 4:-0.943743 5:-0.960377 6:-0.974331 7:-0.892104 8:-0.895112 9:-0.998452 10:-0.999775 11:-0.994592 12:-0.997281 13:-0.102363 14:0.186899 15:0.086348 16:-0.118146 17:0.264633 18:-0.293981 19:-0.943743 20:-0.960377 21:-0.974331 22:-0.892104 23:-0.895112 24:-0.998452 25:-0.999775 26:-0.994592 27:-0.997281 28:-0.102363 29:0.186899 30:0.086348 
32 32 1:-0.12778 2:0.27987 3:-0.318911 4:-0.908072 5:-0.841463 6:-0.948485 7:-0.875308 8:-0.819779 9:-0.989272 10:-0.998651 11:-0.994991 12:-0.992455 13:-0.105338 14:0.187052 15:0.0888816 16:-0.12778 17:0.27987 18:-0.318911 19:-0.908072 20:-0.841463 21:-0.948485 22:-0.875308 23:-0.819779 24:-0.989272 25:-0.998651 26:-0.994991 27:-0.992455 28:-0.105338 29:0.187052 30:0.0888816 
32 32 1:-0.124143 2:0.309131 3:-0.338727 4:-0.877428 5:-0.838687 6:-0.944783 7:-0.869078 8:-0.824684 9:-0.989384 10:-0.996553 11:-0.991576 12:-0.99 13:-0.106171 14:0.185005 15:0.0892052 16:-0.124143 17:0.309131 18:-0.338727 19:-0.877428 20:-0.838687 21:-0.944783 22:-0.869078 23:-0.824684 24:-0.989384 25:-0.996553 26:-0.991576 27:-0.99 28:-0.106171 29:0.185005 30:0.0892052 
32 32 1:-0.0962654 2:0.322828 3:-0.371194 4:-0.903032 5:-0.954019 6:-0.96694 7:-0.904697 8:-0.938724 9:-0.999098 10:-0.995217 11:-0.992802 12:-0.994116 13:-0.102516 14:0.183461 15:0.0876212 16:-0.0962654 17:0.322828 18:-0.371194 19:-0.903032 20:-0.954019 21:-0.96694 22:-0.904697 23:-0.938724 24:-0.999098 25:-0.995217 26:-0.992802 27:-0.994116 28:-0.102516 29:0.183461 30:0.0876212 
32 32 1:-0.0716371 2:0.302403 3:-0.330755 4:-0.925262 5:-0.937241 6:-0.949454 7:-0.923935 8:-0.91254 9:-0.997781 10:-0.996952 11:-0.996596 12:-0.995917 13:-0.10147 14:0.185287 15:0.0867039 16:-0.0716371 17:0.302403 18:-0.330755 19:-0.925262 20:-0.937241 21:-0.949454 22:-0.923935 23:-0.91254 24:-0.997781 25:-0.996952 26:-0.996596 27:-0.995917 28:-0.10147 29:0.185287 30:0.0867039 
32 32 1:-0.0423008 2:0.27283 3:-0.296333 4:-0.900166 5:-0.9044 6:-0.925134 7:-0.850221 8:-0.871655 9:-0.992195 10:-0.998595 11:-0.991929 12:-0.992702 13:-0.101003 14:0.186244 15:0.0866834 16:-0.0423008 17:0.27283 18:-0.296333 19:-0.900166 20:-0.9044 21:-0.925134 22:-0.850221 23:-0.871655 24:-0.992195 25:-0.998595 26:-0.991929 27:-0.992702 28:-0.101003 29:0.186244 30:0.0866834 
32 32 1:-0.086365 2:0.269631 3:-0.32403 4:-0.817082 5:-0.758155 6:-0.887194 7:-0.749812 8:-0.806013 9:-0.977345 10:-0.996471 11:-0.977327 12:-0.979344 13:-0.098632 14:0.188885 15:0.0884103 16:-0.086365 17:0.269631 18:-0.32403 19:-0.817082 20:-0.758155 21:-0.887194 22:-0.749812 23:-0.806013 24:-0.977345 25:-0.996471 26:-0.977327 27:-0.979344 28:-0.098632 29:0.188885 30:0.0884103 
32 32 1:-0.155525 2:0.332127 3:-0.418874 4:-0.742828 5:-0.716291 6:-0.804473 7:-0.746213 8:-0.744336 9:-0.970074 10:-0.981593 11:-0.962317 12:-0.961429 13:-0.11291 14:0.181968 15:0.0908448 16:-0.155525 17:0.332127 18:-0.418874 19:-0.742828 20:-0.716291 21:-0.804473 22:-0.746213 23:-0.744336 24:-0.970074 25:-0.981593 26:-0.962317 27:-0.961429 28:-0.11291 29:0.181968 30:0.0908448 
32 0 1:0.0138259 2:0.293944 3:-0.130715 4:-0.483002 5:-0.536193 6:-0.463208 7:-0.390717 8:-0.402551 9:-0.911608 10:-0.906892 11:-0.839294 12:-0.844518 13:-0.0462436 14:0.235894 15:0.127374 16:0.0138259 17:0.293944 18:-0.130715 19:-0.483002 20:-0.536193 21:-0.463208 22:-0.390717 23:-0.402551 24:-0.911608 25:-0.906892 26:-0.839294 27:-0.844518 28:-0.0462436 29:0.235894 30:0.127374 
32 0 1:0.289608 2:-0.390252 3:-0.323133 4:0.0922759 5:-0.460118 6:-0.186763 7:-0.399183 8:-0.283093 9:-0.654715 10:-0.320051 11:-0.89258 12:-0.378697 13:-0.432618 14:0.127622 15:0.0598241 16:0.289608 17:-0.390252 18:-0.323133 19:0.0922759 20:-0.460118 21:-0.186763 22:-0.399183 23:-0.283093 24:-0.654715 25:-0.320051 26:-0.89258 27:-0.378697 28:-0.432618 29:0.127622 30:0.0598241 
4.138079636214469 0 1:0.250308 2:-0.0248575 3:0.0696207 4:0.0258619 5:-0.37919 6:-0.0154393 7:-0.0391949 8:-0.0477661 9:-0.665953 10:-0.665351 11:-0.4065 12:-0.427871 13:-0.295047 14:0.0380118 15:0.0859042 16:0.250308 17:-0.0248575 18:0.0696207 19:0.0258619 20:-0.37919 21:-0.0154393 22:-0.0391949 23:-0.0477661 24:-0.665953 25:-0.665351 26:-0.4065 27:-0.427871 28:-0.295047 29:0.0380118 30:0.0859042 
1.920461123955411 0 1:-0.0801336 2:0.33606 3:0.699972 4:0.416242 5:0.146469 6:0.241632 7:-0.528937 8:-0.27686 9:-0.424724 10:-0.489427 11:0.232752 12:0.0184778 13:-0.59485 14:0.201883 15:0.192053 16:-0.0801336 17:0.33606 18:0.699972 19:0.416242 20:0.146469 21:0.241632 22:-0.528937 23:-0.27686 24:-0.424724 25:-0.489427 26:0.232752 27:0.0184778 28:-0.59485 29:0.201883 30:0.192053 
0.753696876039027 0 1:0.00553247 2:-0.464411 3:-0.164223 4:0.546764 5:0.223757 6:0.133921 7:0.720769 8:0.0480501 9:-0.573695 10:-0.175981 11:0.517109 12:0.244254 13:-0.0179926 14:0.355275 15:0.669754 16:0.00553247 17:-0.464411 18:-0.164223 19:0.546764 20:0.223757 21:0.133921 22:0.720769 23:0.0480501 24:-0.573695 25:-0.175981 26:0.517109 27:0.244254 28:-0.0179926 29:0.355275 30:0.669754 
0.3681145054228722 0 1:0.256971 2:-0.00803828 3:-0.748277 4:0.222271 5:-0.389848 6:0.129638 7:1 8:0.306198 9:-0.703124 10:-0.555907 11:0.222335 12:-0.155951 13:-0.0935972 14:0.635616 15:0.104335 16:0.256971 17:-0.00803828 18:-0.748277 19:0.222271 20:-0.389848 21:0.129638 22:1 23:0.306198 24:-0.703124 25:-0.555907 26:0.222335 27:-0.155951 28:-0.0935972 29:0.635616 30:0.104335 
32 32 1:-0.0509329 2:0.232637 3:-0.422424 4:-0.881295 5:-0.940481 6:-0.953952 7:-0.950895 8:-0.907131 9:-0.995663 10:-0.998241 11:-0.983819 12:-0.991242 13:-0.104831 14:0.190095 15:0.0816424 16:-0.0509329 17:0.232637 18:-0.422424 19:-0.881295 20:-0.940481 21:-0.953952 22:-0.950895 23:-0.907131 24:-0.995663 25:-0.998241 26:-0.983819 27:-0.991242 28:-0.104831 29:0.190095 30:0.0816424 
32 32 1:-0.0974285 2:0.241228 3:-0.396811 4:-0.854519 5:-0.847471 6:-0.95163 7:-0.860291 8:-0.926297 9:-0.988504 10:-0.998594 11:-0.982949 12:-0.987828 13:-0.104634 14:0.189443 15:0.082403 16:-0.0974285 17:0.241228 18:-0.396811 19:-0.854519 20:-0.847471 21:-0.95163 22:-0.860291 23:-0.926297 24:-0.988504 25:-0.998594 26:-0.982949 27:-0.987828 28:-0.104634 29:0.189443 30:0.082403 
32 32 1:-0.158691 2:0.297472 3:-0.309839 4:-0.858413 5:-0.848348 6:-0.930496 7:-0.824599 8:-0.9374 9:-0.988707 10:-0.996353 11:-0.988122 12:-0.988347 13:-0.106127 14:0.188925 15:0.085688 16:-0.158691 17:0.297472 18:-0.309839 19:-0.858413 20:-0.848348 21:-0.930496 22:-0.824599 23:-0.9374 24:-0.988707 25:-0.996353 26:-0.988122 27:-0.988347 28:-0.106127 29:0.188925 30:0.085688 
32 32 1:-0.0740621 2:0.301203 3:-0.310961 4:-0.850283 5:-0.843037 6:-0.886008 7:-0.823037 8:-0.862776 9:-0.985881 10:-0.994762 11:-0.988604 12:-0.986214 13:-0.107572 14:0.190273 15:0.0806231 16:-0.0740621 17:0.301203 18:-0.310961 19:-0.850283 20:-0.843037 21:-0.886008 22:-0.823037 23:-0.862776 24:-0.985881 25:-0.994762 26:-0.988604 27:-0.986214 28:-0.107572 29:0.190273 30:0.0806231 
32 32 1:-0.05205 2:0.251383 3:-0.375667 4:-0.845499 5:-0.810281 6:-0.86812 7:-0.797039 8:-0.835272 9:-0.9874 10:-0.995758 11:-0.981544 12:-0.985056 13:-0.105956 14:0.192334 15:0.0799511 16:-0.05205 17:0.251383 18:-0.375667 19:-0.845499 20:-0.810281 21:-0.86812 22:-0.797039 23:-0.835272 24:-0.9874 25:-0.995758 26:-0.981544 27:-0.985056 28:-0.105956 29:0.192334 30:0.0799511 
32 32 1:-0.155719 2:0.272239 3:-0.391742 4:-0.765269 5:-0.832619 6:-0.872195 7:-0.54958 8:-0.690369 9:-0.984659 10:-0.99479 11:-0.924965 12:-0.963289 13:-0.10616 14:0.195028 15:0.0993945 16:-0.155719 17:0.272239 18:-0.391742 19:-0.765269 20:-0.832619 21:-0.872195 22:-0.54958 23:-0.690369 24:-0.984659 25:-0.99479 26:-0.924965 27:-0.963289 28:-0.10616 29:0.195028 30:0.0993945 
0 32 1:-0.228251 2:0.371419 3:-0.337123 4:-0.608142 5:-0.822177 6:-0.749414 7:-0.35522 8:-0.595742 9:-0.960412 10:-0.966853 11:-0.862205 12:-0.912567 13:-0.1193 14:0.216157 15:0.108168 16:-0.228251 17:0.371419 18:-0.337123 19:-0.608142 20:-0.822177 21:-0.749414 22:-0.35522 23:-0.595742 24:-0.960412 25:-0.966853 26:-0.862205 27:-0.912567 28:-0.1193 29:0.216157 30:0.108168 
17.82097558822282 32 1:-0.277087 2:0.360525 3:-0.155386 4:-0.581438 5:-0.791956 6:-0.718414 7:-0.472994 8:-0.622582 9:-0.929552 10:-0.966171 11:-0.876142 12:-0.902701 13:-0.125313 14:0.216863 15:0.0624994 16:-0.277087 17:0.360525 18:-0.155386 19:-0.581438 20:-0.791956 21:-0.718414 22:-0.472994 23:-0.622582 24:-0.929552 25:-0.966171 26:-0.876142 27:-0.902701 28:-0.125313 29:0.216863 30:0.0624994 
0 32 1:-0.0928177 2:0.153915 3:-0.314821 4:-0.555096 5:-0.607605 6:-0.705165 7:-0.427915 8:-0.451761 9:-0.914212 10:-0.954922 11:-0.856468 12:-0.881651 13:-0.155966 14:0.236507 15:0.016732 16:-0.0928177 17:0.153915 18:-0.314821 19:-0.555096 20:-0.607605 21:-0.705165 22:-0.427915 23:-0.451761 24:-0.914212 25:-0.954922 26:-0.856468 27:-0.881651 28:-0.155966 29:0.236507 30:0.016732 
6.306044881712298 0 1:0.128399 2:0.0771299 3:-0.563506 4:-0.484538 5:-0.636275 6:-0.622387 7:-0.304395 8:-0.438679 9:-0.911019 10:-0.92857 11:-0.813895 12:-0.848803 13:-0.169318 14:0.26941 15:0.0236876 16:0.128399 17:0.0771299 18:-0.563506 19:-0.484538 20:-0.636275 21:-0.622387 22:-0.304395 23:-0.438679 24:-0.911019 25:-0.92857 26:-0.813895 27:-0.848803 28:-0.169318 29:0.26941 30:0.0236876 
32 32 1:-0.134362 2:0.227914 3:-0.383825 4:-0.911412 5:-0.971069 6:-0.969412 7:-0.960048 8:-0.925187 9:-0.996807 10:-0.998193 11:-0.992527 12:-0.994805 13:-0.0998354 14:0.189657 15:0.090091 16:-0.134362 17:0.227914 18:-0.383825 19:-0.911412 20:-0.971069 21:-0.969412 22:-0.960048 23:-0.925187 24:-0.996807 25:-0.998193 26:-0.992527 27:-0.994805 28:-0.0998354 29:0.189657 30:0.090091 
32 32 1:-0.122179 2:0.242284 3:-0.363405 4:-0.941272 5:-0.983464 6:-0.974501 7:-0.960846 8:-0.933301 9:-0.998473 10:-0.999281 11:-0.995321 12:-0.997239 13:-0.101331 14:0.188298 15:0.088532 16:-0.122179 17:0.242284 18:-0.363405 19:-0.941272 20:-0.983464 21:-0.974501 22:-0.960846 23:-0.933301 24:-0.998473 25:-0.999281 26:-0.995321 27:-0.997239 28:-0.101331 29:0.188298 30:0.088532 
32 32 1:-0.112182 2:0.250961 3:-0.347187 4:-0.963791 5:-0.9889 6:-0.990205 7:-0.976547 8:-0.956019 9:-0.99932 10:-0.999807 11:-0.998101 12:-0.998938 13:-0.102066 14:0.187394 15:0.0874869 16:-0.112182 17:0.250961 18:-0.347187 19:-0.963791 20:-0.9889 21:-0.990205 22:-0.976547 23:-0.956019 24:-0.99932 25:-0.999807 26:-0.998101 27:-0.998938 28:-0.102066 29:0.187394 30:0.0874869 
32 32 1:-0.106436 2:0.260025 3:-0.346182 4:-0.970703 5:-0.995847 6:-0.989862 7:-0.989424 8:-0.982166 9:-0.999708 10:-0.999922 11:-0.998161 12:-0.99921 13:-0.102376 14:0.187101 15:0.0872876 16:-0.106436 17:0.260025 18:-0.346182 19:-0.970703 20:-0.995847 21:-0.989862 22:-0.989424 23:-0.982166 24:-0.999708 25:-0.999922 26:-0.998161 27:-0.99921 28:-0.102376 29:0.187101 30:0.0872876 
32 32 1:-0.102499 2:0.264169 3:-0.331495 4:-0.983356 5:-0.99574 6:-0.990928 7:-0.9855 8:-0.982542 9:-0.999828 10:-0.999984 11:-0.999159 12:-0.999656 13:-0.102484 14:0.186879 15:0.0869731 16:-0.102499 17:0.264169 18:-0.331495 19:-0.983356 20:-0.99574 21:-0.990928 22:-0.9855 23:-0.982542 24:-0.999828 25:-0.999984 26:-0.999159 27:-0.999656 28:-0.102484 29:0.186879 30:0.0869731 
32 32 1:-0.0896549 2:0.269332 3:-0.350914 4:-0.964962 5:-0.981727 6:-0.978698 7:-0.966145 8:-0.942659 9:-0.999722 10:-0.999756 11:-0.996832 12:-0.998646 13:-0.102169 14:0.186391 15:0.0862471 16:-0.0896549 17:0.269332 18:-0.350914 19:-0.964962 20:-0.981727 21:-0.978698 22:-0.966145 23:-0.942659 24:-0.999722 25:-0.999756 26:-0.996832 27:-0.998646 28:-0.102169 29:0.186391 30:0.0862471 
32 32 1:-0.0864349 2:0.276565 3:-0.341384 4:-0.964068 5:-0.979401 6:-0.976012 7:-0.946924 8:-0.92717 9:-0.999744 10:-0.999605 11:-0.997006 12:-0.998623 13:-0.102159 14:0.186367 15:0.0862049 16:-0.0864349 17:0.276565 18:-0.341384 19:-0.964068 20:-0.979401 21:-0.976012 22:-0.946924 23:-0.92717 24:-0.999744 25:-0.999605 26:-0.997006 27:-0.998623 28:-0.102159 29:0.186367 30:0.0862049 
32 32 1:-0.113731 2:0.28699 3:-0.280021 4:-0.935343 5:-0.938227 6:-0.948014 7:-0.853596 8:-0.823031 9:-0.9975 10:-0.998396 11:-0.991541 12:-0.994907 13:-0.103334 14:0.187509 15:0.0853989 16:-0.113731 17:0.28699 18:-0.280021 19:-0.935343 20:-0.938227 21:-0.948014 22:-0.853596 23:-0.823031 24:-0.9975 25:-0.998396 26:-0.991541 27:-0.994907 28:-0.103334 29:0.187509 30:0.0853989 
32 32 1:-0.160426 2:0.327436 3:-0.29917 4:-0.812536 5:-0.891545 6:-0.866024 7:-0.681985 8:-0.712821 9:-0.98812 10:-0.989427 11:-0.964898 12:-0.975599 13:-0.107878 14:0.191694 15:0.091874 16:-0.160426 17:0.327436 18:-0.29917 19:-0.812536 20:-0.891545 21:-0.866024 22:-0.681985 23:-0.712821 24:-0.98812 25:-0.989427 26:-0.964898 27:-0.975599 28:-0.107878 29:0.191694 30:0.091874 
0 32 1:-0.14984 2:0.316741 3:-0.219401 4:-0.66062 5:-0.673513 6:-0.740355 7:-0.431374 8:-0.465683 9:-0.958948 10:-0.978041 11:-0.878099 12:-0.924436 13:-0.101967 14:0.213584 15:0.104805 16:-0.14984 17:0.316741 18:-0.219401 19:-0.66062 20:-0.673513 21:-0.740355 22:-0.431374 23:-0.465683 24:-0.958948 25:-0.978041 26:-0.878099 27:-0.924436 28:-0.101967 29:0.213584 30:0.104805 
0 32 1:-0.0224086 2:0.158893 3:-0.51558 4:-0.618888 5:-0.767479 6:-0.774383 7:-0.360771 8:-0.623873 9:-0.966706 10:-0.975546 11:-0.850255 12:-0.916701 13:-0.0955997 14:0.23294 15:0.106609 16:-0.0224086 17:0.158893 18:-0.51558 19:-0.618888 20:-0.767479 21:-0.774383 22:-0.360771 23:-0.623873 24:-0.966706 25:-0.975546 26:-0.850255 27:-0.916701 28:-0.0955997 29:0.23294 30:0.106609 
32 0 1:0.0431712 2:0.359024 3:-0.110564 4:-0.544014 5:-0.655765 6:-0.703783 7:-0.270432 8:-0.335071 9:-0.936559 10:-0.956959 11:-0.782204 12:-0.867196 13:-0.0751445 14:0.24852 15:0.149643 16:0.0431712 17:0.359024 18:-0.110564 19:-0.544014 20:-0.655765 21:-0.703783 22:-0.270432 23:-0.335071 24:-0.936559 25:-0.956959 26:-0.782204 27:-0.867196 28:-0.0751445 29:0.24852 30:0.149643 
32 32 1:-0.128266 2:0.266871 3:-0.195467 4:-0.646791 5:-0.507498 6:-0.741886 7:-0.450677 8:-0.546819 9:-0.924897 10:-0.980006 11:-0.923921 12:-0.925943 13:-0.0686092 14:0.179392 15:0.0789056 16:-0.128266 17:0.266871 18:-0.195467 19:-0.646791 20:-0.507498 21:-0.741886 22:-0.450677 23:-0.546819 24:-0.924897 25:-0.980006 26:-0.923921 27:-0.925943 28:-0.0686092 29:0.179392 30:0.0789056 
32 0 1:0.171244 2:0.144605 3:0.134344 4:-0.283016 5:-0.477794 6:-0.451478 7:-0.316808 8:-0.434537 9:-0.790366 10:-0.897856 11:-0.676998 12:-0.725482 13:-0.0729646 14:0.0987886 15:0.161836 16:0.171244 17:0.144605 18:0.134344 19:-0.283016 20:-0.477794 21:-0.451478 22:-0.316808 23:-0.434537 24:-0.790366 25:-0.897856 26:-0.676998 27:-0.725482 28:-0.0729646 29:0.0987886 30:0.161836 
6.045816000980535 0 1:-0.18497 2:-0.299148 3:-0.571014 4:-0.214625 5:-0.496756 6:-0.273259 7:-0.573165 8:-0.37813 9:-0.948806 10:-0.583792 11:-0.870708 12:-0.671807 13:0.0102752 14:0.338201 15:0.131508 16:-0.18497 17:-0.299148 18:-0.571014 19:-0.214625 20:-0.496756 21:-0.273259 22:-0.573165 23:-0.37813 24:-0.948806 25:-0.583792 26:-0.870708 27:-0.671807 28:0.0102752 29:0.338201 30:0.131508 
6.515857038317233 0 1:-0.0628046 2:-0.339051 3:-0.440507 4:0.0597937 5:-0.210399 6:-0.0915523 7:-0.344271 8:-0.480508 9:-0.70723 10:-0.388797 11:-0.82279 12:-0.421346 13:0.091997 14:0.390553 15:0.228156 16:-0.0628046 17:-0.339051 18:-0.440507 19:0.0597937 20:-0.210399 21:-0.0915523 22:-0.344271 23:-0.480508 24:-0.70723 25:-0.388797 26:-0.82279 27:-0.421346 28:0.091997 29:0.390553 30:0.228156 
0.9132652788162386 0 1:0.287878 2:-0.10137 3:-0.353829 4:0.0655917 5:-0.0102578 6:0.077089 7:0.316093 8:0.458176 9:-0.544075 10:-0.579933 11:-0.44795 12:-0.332647 13:-0.402919 14:0.300939 15:0.192951 16:0.287878 17:-0.10137 18:-0.353829 19:0.0655917 20:-0.0102578 21:0.077089 22:0.316093 23:0.458176 24:-0.544075 25:-0.579933 26:-0.44795 27:-0.332647 28:-0.402919 29:0.300939 30:0.192951 
7.12030428498903 0 1:0.102177 2:0.18555 3:0.0423713 4:-0.238279 5:-0.274889 6:-0.498536 7:-0.138572 8:-0.376162 9:-0.820337 10:-0.885815 11:-0.543645 12:-0.685031 13:-0.15688 14:0.278117 15:0.179778 16:0.102177 17:0.18555 18:0.0423713 19:-0.238279 20:-0.274889 21:-0.498536 22:-0.138572 23:-0.376162 24:-0.820337 25:-0.885815 26:-0.543645 27:-0.685031 28:-0.15688 29:0.278117 30:0.179778 
4.742985391459663 0 1:-0.369897 2:0.281117 3:-0.306221 4:-0.470906 5:-0.394847 6:-0.745374 7:-0.440203 8:-0.131341 9:-0.752605 10:-0.980897 11:-0.903824 12:-0.839354 13:-0.0686387 14:0.20821 15:0.121526 16:-0.369897 17:0.281117 18:-0.306221 19:-0.470906 20:-0.394847 21:-0.745374 22:-0.440203 23:-0.131341 24:-0.752605 25:-0.980897 26:-0.903824 27:-0.839354 28:-0.0686387 29:0.20821 30:0.121526 
32 32 1:-0.0813994 2:0.186721 3:-0.37238 4:-0.893149 5:-0.994573 6:-0.94239 7:-0.90747 8:-0.851618 9:-0.99974 10:-0.991836 11:-0.991722 12:-0.99193 13:-0.103916 14:0.192415 15:0.0861205 16:-0.0813994 17:0.186721 18:-0.37238 19:-0.893149 20:-0.994573 21:-0.94239 22:-0.90747 23:-0.851618 24:-0.99974 25:-0.991836 26:-0.991722 27:-0.99193 28:-0.103916 29:0.192415 30:0.0861205 
32 32 1:-0.0882222 2:0.214207 3:-0.345262 4:-0.939566 5:-0.991381 6:-0.965397 7:-0.975707 8:-0.922528 9:-0.99986 10:-0.997009 11:-0.998228 12:-0.997492 13:-0.102902 14:0.188755 15:0.0865179 16:-0.0882222 17:0.214207 18:-0.345262 19:-0.939566 20:-0.991381 21:-0.965397 22:-0.975707 23:-0.922528 24:-0.99986 25:-0.997009 26:-0.998228 27:-0.997492 28:-0.102902 29:0.188755 30:0.0865179 
0 32 1:-0.0929021 2:0.221998 3:-0.341824 4:-0.949773 5:-0.992356 6:-0.989686 7:-0.98313 8:-0.976954 9:-0.999985 10:-0.997894 11:-0.998435 12:-0.998174 13:-0.102438 14:0.188308 15:0.0867302 16:-0.0929021 17:0.221998 18:-0.341824 19:-0.949773 20:-0.992356 21:-0.989686 22:-0.98313 23:-0.976954 24:-0.999985 25:-0.997894 26:-0.998435 27:-0.998174 28:-0.102438 29:0.188308 30:0.0867302 
0 32 1:-0.0912348 2:0.232009 3:-0.346189 4:-0.957611 5:-0.999836 6:-0.987953 7:-0.986927 8:-0.978494 9:-1 10:-0.998744 11:-0.998126 12:-0.998601 13:-0.102546 14:0.188103 15:0.0866857 16:-0.0912348 17:0.232009 18:-0.346189 19:-0.957611 20:-0.999836 21:-0.987953 22:-0.986927 23:-0.978494 24:-1 25:-0.998744 26:-0.998126 27:-0.998601 28:-0.102546 29:0.188103 30:0.0866857 
3.405890851416129 32 1:-0.0937679 2:0.245892 3:-0.338789 4:-0.974852 5:-0.99967 6:-0.986955 7:-0.989366 8:-0.973319 9:-0.999998 10:-0.999578 11:-0.998705 12:-0.999323 13:-0.102457 14:0.187526 15:0.0867638 16:-0.0937679 17:0.245892 18:-0.338789 19:-0.974852 20:-0.99967 21:-0.986955 22:-0.989366 23:-0.973319 24:-0.999998 25:-0.999578 26:-0.998705 27:-0.999323 28:-0.102457 29:0.187526 30:0.0867638 
32 32 1:-0.0895433 2:0.25289 3:-0.3381 4:-0.977289 5:-0.985856 6:-0.989959 7:-0.980902 8:-0.964594 9:-0.999825 10:-0.999868 11:-0.998658 12:-0.999406 13:-0.102527 14:0.187203 15:0.0865944 16:-0.0895433 17:0.25289 18:-0.3381 19:-0.977289 20:-0.985856 21:-0.989959 22:-0.980902 23:-0.964594 24:-0.999825 25:-0.999868 26:-0.998658 27:-0.999406 28:-0.102527 29:0.187203 30:0.0865944 
32 32 1:-0.0584092 2:0.240076 3:-0.324467 4:-0.944712 5:-0.953749 6:-0.976772 7:-0.963065 8:-0.928911 9:-0.996636 10:-0.999079 11:-0.998672 12:-0.997438 13:-0.10446 14:0.18693 15:0.0868679 16:-0.0584092 17:0.240076 18:-0.324467 19:-0.944712 20:-0.953749 21:-0.976772 22:-0.963065 23:-0.928911 24:-0.996636 25:-0.999079 26:-0.998672 27:-0.997438 28:-0.10446 29:0.18693 30:0.0868679 
32 32 1:-0.0579285 2:0.243264 3:-0.303309 4:-0.92262 5:-0.903592 6:-0.93889 7:-0.895177 8:-0.854737 9:-0.994591 10:-0.998396 11:-0.995922 12:-0.995095 13:-0.104655 14:0.185927 15:0.0862593 16:-0.0579285 17:0.243264 18:-0.303309 19:-0.92262 20:-0.903592 21:-0.93889 22:-0.895177 23:-0.854737 24:-0.994591 25:-0.998396 26:-0.995922 27:-0.995095 28:-0.104655 29:0.185927 30:0.0862593 
32 32 1:-0.100072 2:0.285314 3:-0.405933 4:-0.861832 5:-0.872861 6:-0.924896 7:-0.777707 8:-0.72172 9:-0.99447 10:-0.9975 11:-0.965875 12:-0.983917 13:-0.10289 14:0.182213 15:0.0910397 16:-0.100072 17:0.285314 18:-0.405933 19:-0.861832 20:-0.872861 21:-0.924896 22:-0.777707 23:-0.72172 24:-0.99447 25:-0.9975 26:-0.965875 27:-0.983917 28:-0.10289 29:0.182213 30:0.0910397 
32 32 1:-0.16437 2:0.31616 3:-0.405794 4:-0.794048 5:-0.848108 6:-0.945706 7:-0.673393 8:-0.691127 9:-0.982107 10:-0.995986 11:-0.952944 12:-0.972684 13:-0.108197 14:0.183643 15:0.0966154 16:-0.16437 17:0.31616 18:-0.405794 19:-0.794048 20:-0.848108 21:-0.945706 22:-0.673393 23:-0.691127 24:-0.982107 25:-0.995986 26:-0.952944 27:-0.972684 28:-0.108197 29:0.183643 30:0.0966154 
0 32 1:-0.177523 2:0.365425 3:-0.151617 4:-0.684096 5:-0.836416 6:-0.90619 7:-0.412907 8:-0.440074 9:-0.979917 10:-0.983166 11:-0.852785 12:-0.928472 13:-0.112986 14:0.211491 15:0.0789407 16:-0.177523 17:0.365425 18:-0.151617 19:-0.684096 20:-0.836416 21:-0.90619 22:-0.412907 23:-0.440074 24:-0.979917 25:-0.983166 26:-0.852785 27:-0.928472 28:-0.112986 29:0.211491 30:0.0789407 
32 0 1:-0.0141047 2:0.316568 3:0.113464 4:-0.489993 5:-0.759068 6:-0.699478 7:-0.374551 8:-0.378048 9:-0.957194 10:-0.968351 11:-0.67861 12:-0.847452 13:-0.114511 14:0.215037 15:0.132061 16:-0.0141047 17:0.316568 18:0.113464 19:-0.489993 20:-0.759068 21:-0.699478 22:-0.374551 23:-0.378048 24:-0.957194 25:-0.968351 26:-0.67861 27:-0.847452 28:-0.114511 29:0.215037 30:0.132061 
32 0 1:0.0296766 2:0.276668 3:-0.315187 4:-0.507638 5:-0.644734 6:-0.414054 7:-0.501991 8:-0.40253 9:-0.930881 10:-0.881205 11:-0.909452 12:-0.86216 13:-0.0419044 14:0.250409 15:0.12543 16:0.0296766 17:0.276668 18:-0.315187 19:-0.507638 20:-0.644734 21:-0.414054 22:-0.501991 23:-0.40253 24:-0.930881 25:-0.881205 26:-0.909452 27:-0.86216 28:-0.0419044 29:0.250409 30:0.12543 
32 0 1:0.0303971 2:0.10456 3:-0.319936 4:-0.521665 5:-0.442118 6:-0.544443 7:-0.523372 8:-0.191091 9:-0.884437 10:-0.899095 11:-0.902061 12:-0.849108 13:-0.0465355 14:0.255441 15:0.151838 16:0.0303971 17:0.10456 18:-0.319936 19:-0.521665 20:-0.442118 21:-0.544443 22:-0.523372 23:-0.191091 24:-0.884437 25:-0.899095 26:-0.902061 27:-0.849108 28:-0.0465355 29:0.255441 30:0.151838 
32 32 1:-0.0851065 2:0.266437 3:-0.310789 4:-0.992866 5:-0.989455 6:-0.995935 7:-0.989078 8:-0.990569 9:-0.999812 10:-0.999972 11:-0.999859 12:-0.999887 13:-0.102431 14:0.186916 15:0.0867251 16:-0.0851065 17:0.266437 18:-0.310789 19:-0.992866 20:-0.989455 21:-0.995935 22:-0.989078 23:-0.990569 24:-0.999812 25:-0.999972 26:-0.999859 27:-0.999887 28:-0.102431 29:0.186916 30:0.0867251 
32 32 1:-0.0877839 2:0.264335 3:-0.305726 4:-0.998816 5:-0.992356 6:-0.995583 7:-0.996417 8:-0.995136 9:-0.999909 10:-0.999981 11:-1 12:-0.999987 13:-0.102462 14:0.186945 15:0.0867884 16:-0.0877839 17:0.264335 18:-0.305726 19:-0.998816 20:-0.992356 21:-0.995583 22:-0.996417 23:-0.995136 24:-0.999909 25:-0.999981 26:-1 27:-0.999987 28:-0.102462 29:0.186945 30:0.0867884 
32 32 1:-0.087361 2:0.262708 3:-0.309746 4:-1 5:-0.998953 6:-0.995367 7:-0.997113 8:-0.99427 9:-0.999942 10:-0.99999 11:-0.999977 12:-1 13:-0.102464 14:0.186925 15:0.0867642 16:-0.087361 17:0.262708 18:-0.309746 19:-1 20:-0.998953 21:-0.995367 22:-0.997113 23:-0.99427 24:-0.999942 25:-0.99999 26:-0.999977 27:-1 28:-0.102464 29:0.186925 30:0.0867642 
32 32 1:-0.0885128 2:0.264539 3:-0.316063 4:-0.997094 5:-0.996509 6:-0.995862 7:-0.99495 8:-0.990793 9:-0.999946 10:-0.999984 11:-0.999855 12:-0.999955 13:-0.10245 14:0.186901 15:0.0867467 16:-0.0885128 17:0.264539 18:-0.316063 19:-0.997094 20:-0.996509 21:-0.995862 22:-0.99495 23:-0.990793 24:-0.999946 25:-0.999984 26:-0.999855 27:-0.999955 28:-0.10245 29:0.186901 30:0.0867467 
32 32 1:-0.0909604 2:0.277762 3:-0.31654 4:-0.984592 5:-0.989638 6:-0.980142 7:-0.993489 8:-0.975679 9:-0.999914 10:-0.99949 11:-0.999843 12:-0.999629 13:-0.102467 14:0.186861 15:0.0867452 16:-0.0909604 17:0.277762 18:-0.31654 19:-0.984592 20:-0.989638 21:-0.980142 22:-0.993489 23:-0.975679 24:-0.999914 25:-0.99949 26:-0.999843 27:-0.999629 28:-0.102467 29:0.186861 30:0.0867452 
32 32 1:-0.0579059 2:0.284238 3:-0.365655 4:-0.920182 5:-0.904524 6:-0.942699 7:-0.886452 8:-0.775482 9:-0.993666 10:-0.998539 11:-0.989504 12:-0.992498 13:-0.100498 14:0.185775 15:0.0813013 16:-0.0579059 17:0.284238 18:-0.365655 19:-0.920182 20:-0.904524 21:-0.942699 22:-0.886452 23:-0.775482 24:-0.993666 25:-0.998539 26:-0.989504 27:-0.992498 28:-0.100498 29:0.185775 30:0.0813013 
32 32 1:-0.046315 2:0.247942 3:-0.296549 4:-0.799082 5:-0.836729 6:-0.837384 7:-0.62346 8:-0.631214 9:-0.987742 10:-0.992042 11:-0.945547 12:-0.970246 13:-0.0988066 14:0.187055 15:0.0779515 16:-0.046315 17:0.247942 18:-0.296549 19:-0.799082 20:-0.836729 21:-0.837384 22:-0.62346 23:-0.631214 24:-0.987742 25:-0.992042 26:-0.945547 27:-0.970246 28:-0.0988066 29:0.187055 30:0.0779515 
32 32 1:-0.0878364 2:0.247148 3:-0.266769 4:-0.811976 5:-0.823811 6:-0.825205 7:-0.604059 8:-0.614113 9:-0.989458 10:-0.991532 11:-0.949536 12:-0.97213 13:-0.0986938 14:0.188328 15:0.0843924 16:-0.0878364 17:0.247148 18:-0.266769 19:-0.811976 20:-0.823811 21:-0.825205 22:-0.604059 23:-0.614113 24:-0.989458 25:-0.991532 26:-0.949536 27:-0.97213 28:-0.0986938 29:0.188328 30:0.0843924 
32 32 1:-0.196987 2:0.253748 3:-0.294488 4:-0.820568 5:-0.788099 6:-0.890571 7:-0.806286 8:-0.647925 9:-0.960619 10:-0.996831 11:-0.988903 12:-0.975864 13:-0.0945363 14:0.185418 15:0.0792557 16:-0.196987 17:0.253748 18:-0.294488 19:-0.820568 20:-0.788099 21:-0.890571 22:-0.806286 23:-0.647925 24:-0.960619 25:-0.996831 26:-0.988903 27:-0.975864 28:-0.0945363 29:0.185418 30:0.0792557 
32 32 1:-0.135454 2:0.247358 3:-0.308813 4:-0.728517 5:-0.600755 6:-0.854732 7:-0.740453 8:-0.677718 9:-0.932516 10:-0.99416 11:-0.975569 12:-0.956452 13:-0.0876772 14:0.186314 15:0.0690011 16:-0.135454 17:0.247358 18:-0.308813 19:-0.728517 20:-0.600755 21:-0.854732 22:-0.740453 23:-0.677718 24:-0.932516 25:-0.99416 26:-0.975569 27:-0.956452 28:-0.0876772 29:0.186314 30:0.0690011 
32 32 1:0.0366605 2:0.384708 3:-0.300877 4:-0.656054 5:-0.632766 6:-0.750899 7:-0.635358 8:-0.672797 9:-0.94649 10:-0.95612 11:-0.954634 12:-0.931916 13:-0.0652838 14:0.204575 15:0.0817154 16:0.0366605 17:0.384708 18:-0.300877 19:-0.656054 20:-0.632766 21:-0.750899 22:-0.635358 23:-0.672797 24:-0.94649 25:-0.95612 26:-0.954634 27:-0.931916 28:-0.0652838 29:0.204575 30:0.0817154 
3.259711756091156 0 1:-0.14343 2:0.508917 3:0.532795 4:-0.0226967 5:-0.0183927 6:-0.587162 7:-0.0108254 8:-0.278541 9:-0.704736 10:-0.909963 11:-0.115162 12:-0.495672 13:-0.178912 14:0.374043 15:0.104421 16:-0.14343 17:0.508917 18:0.532795 19:-0.0226967 20:-0.0183927 21:-0.587162 22:-0.0108254 23:-0.278541 24:-0.704736 25:-0.909963 26:-0.115162 27:-0.495672 28:-0.178912 29:0.374043 30:0.104421 
23.55500718255554 0 1:0.129982 2:0.32356 3:0.143539 4:-0.316552 5:-0.0858874 6:-0.220433 7:-0.436813 8:-0.130398 9:-0.769064 10:-0.881935 11:-0.742017 12:-0.728533 13:-0.221996 14:0.211951 15:0.204019 16:0.129982 17:0.32356 18:0.143539 19:-0.316552 20:-0.0858874 21:-0.220433 22:-0.436813 23:-0.130398 24:-0.769064 25:-0.881935 26:-0.742017 27:-0.728533 28:-0.221996 29:0.211951 30:0.204019 
5.730611006360371 0 1:0.0669314 2:0.471665 3:-0.14045 4:-0.444195 5:-0.197962 6:-0.847077 7:-0.462923 8:-0.50013 9:-0.82327 10:-0.940867 11:-0.858503 12:-0.831354 13:-0.0656492 14:0.206501 15:0.163116 16:0.0669314 17:0.471665 18:-0.14045 19:-0.444195 20:-0.197962 21:-0.847077 22:-0.462923 23:-0.50013 24:-0.82327 25:-0.940867 26:-0.858503 27:-0.831354 28:-0.0656492 29:0.206501 30:0.163116 
31.55757521581093 0 1:-0.171007 2:0.3347 3:0.0501934 4:-0.432158 5:-0.432145 6:-0.616781 7:-0.486425 8:-0.405298 9:-0.838573 10:-0.948193 11:-0.783998 12:-0.816827 13:-0.0779707 14:0.22358 15:0.0235301 16:-0.171007 17:0.3347 18:0.0501934 19:-0.432158 20:-0.432145 21:-0.616781 22:-0.486425 23:-0.405298 24:-0.838573 25:-0.948193 26:-0.783998 27:-0.816827 28:-0.0779707 29:0.22358 30:0.0235301 
32 0 1:-0.37289 2:0.0471314 3:-0.329244 4:-0.3238 5:-0.47503 6:-0.52469 7:-0.316585 8:-0.417006 9:-0.826956 10:-0.870221 11:-0.756147 12:-0.75312 13:-0.0200891 14:0.277378 15:0.0609118 16:-0.37289 17:0.0471314 18:-0.329244 19:-0.3238 20:-0.47503 21:-0.52469 22:-0.316585 23:-0.417006 24:-0.826956 25:-0.870221 26:-0.756147 27:-0.75312 28:-0.0200891 29:0.277378 30:0.0609118 
7.002965550820661 0 1:-0.3133 2:0.102788 3:-0.40892 4:-0.437784 5:-0.834878 6:-0.496027 7:-0.212382 8:-0.582701 9:-0.911238 10:-0.887364 11:-0.821492 12:-0.825936 13:-0.0305039 14:0.292088 15:0.125335 16:-0.3133 17:0.102788 18:-0.40892 19:-0.437784 20:-0.834878 21:-0.496027 22:-0.212382 23:-0.582701 24:-0.911238 25:-0.887364 26:-0.821492 27:-0.825936 28:-0.0305039 29:0.292088 30:0.125335 
32 0 1:-0.0474294 2:0.0462999 3:-0.152282 4:-0.403457 5:-0.396625 6:-0.456842 7:-0.374998 8:-0.221539 9:-0.92777 10:-0.816731 11:-0.838618 12:-0.79569 13:-0.0733981 14:0.212687 15:0.117299 16:-0.0474294 17:0.0462999 18:-0.152282 19:-0.403457 20:-0.396625 21:-0.456842 22:-0.374998 23:-0.221539 24:-0.92777 25:-0.816731 26:-0.838618 27:-0.79569 28:-0.0733981 29:0.212687 30:0.117299 
0 32 1:-0.151643 2:0.256254 3:-0.232577 4:-0.612536 5:-0.65061 6:-0.698316 7:-0.164919 8:-0.420266 9:-0.969782 10:-0.971618 11:-0.82651 12:-0.907335 13:-0.0799689 14:0.142045 15:0.0578873 16:-0.151643 17:0.256254 18:-0.232577 19:-0.612536 20:-0.65061 21:-0.698316 22:-0.164919 23:-0.420266 24:-0.969782 25:-0.971618 26:-0.82651 27:-0.907335 28:-0.0799689 29:0.142045 30:0.0578873 
0 32 1:-0.0929 2:0.318514 3:-0.40369 4:-0.583968 5:-0.717769 6:-0.605592 7:-0.273487 8:-0.544399 9:-0.977936 10:-0.959372 11:-0.817561 12:-0.900361 13:-0.0868237 14:0.147757 15:0.0833603 16:-0.0929 17:0.318514 18:-0.40369 19:-0.583968 20:-0.717769 21:-0.605592 22:-0.273487 23:-0.544399 24:-0.977936 25:-0.959372 26:-0.817561 27:-0.900361 28:-0.0868237 29:0.147757 30:0.0833603 
0 32 1:-0.0890484 2:0.182255 3:-0.394203 4:-0.600782 5:-0.775602 6:-0.6413 7:-0.356768 8:-0.630783 9:-0.98291 10:-0.950128 11:-0.856148 12:-0.910488 13:-0.0981158 14:0.16293 15:0.0922663 16:-0.0890484 17:0.182255 18:-0.394203 19:-0.600782 20:-0.775602 21:-0.6413 22:-0.356768 23:-0.630783 24:-0.98291 25:-0.950128 26:-0.856148 27:-0.910488 28:-0.0981158 29:0.16293 30:0.0922663 
0 6.188877704366077 1:-0.0589745 2:0.254522 3:-0.470423 4:-0.549278 5:-0.61437 6:-0.594299 7:-0.431207 8:-0.660104 9:-0.949514 10:-0.94313 11:-0.852151 12:-0.889207 13:-0.093834 14:0.142108 15:0.0702757 16:-0.0589745 17:0.254522 18:-0.470423 19:-0.549278 20:-0.61437 21:-0.594299 22:-0.431207 23:-0.660104 24:-0.949514 25:-0.94313 26:-0.852151 27:-0.889207 28:-0.093834 29:0.142108 30:0.0702757 
22.11809843159633 0 1:-0.0870828 2:0.153507 3:-0.4496 4:-0.47165 5:-0.624283 6:-0.406227 7:-0.459381 8:-0.620962 9:-0.952452 10:-0.863239 11:-0.877006 12:-0.849599 13:-0.0869109 14:0.130182 15:0.0776743 16:-0.0870828 17:0.153507 18:-0.4496 19:-0.47165 20:-0.624283 21:-0.406227 22:-0.459381 23:-0.620962 24:-0.952452 25:-0.863239 26:-0.877006 27:-0.849599 28:-0.0869109 29:0.130182 30:0.0776743 
32 0 1:-0.135293 2:-0.0465405 3:-0.259818 4:-0.486277 5:-0.744216 6:-0.423862 7:-0.352612 8:-0.460455 9:-0.976337 10:-0.841159 11:-0.884041 12:-0.849435 13:-0.0872606 14:0.14334 15:0.0740694 16:-0.135293 17:-0.0465405 18:-0.259818 19:-0.486277 20:-0.744216 21:-0.423862 22:-0.352612 23:-0.460455 24:-0.976337 25:-0.841159 26:-0.884041 27:-0.849435 28:-0.0872606 29:0.14334 30:0.0740694 
32 0 1:-0.197255 2:0.102186 3:-0.0264058 4:-0.480993 5:-0.619056 6:-0.641737 7:-0.302177 8:-0.220965 9:-0.932329 10:-0.936732 11:-0.71968 12:-0.830658 13:-0.0875954 14:0.135685 15:0.0388128 16:-0.197255 17:0.102186 18:-0.0264058 19:-0.480993 20:-0.619056 21:-0.641737 22:-0.302177 23:-0.220965 24:-0.932329 25:-0.936732 26:-0.71968 27:-0.830658 28:-0.0875954 29:0.135685 30:0.0388128 
32 0 1:-0.0631691 2:0.347937 3:0.190326 4:-0.373281 5:-0.416896 6:-0.588589 7:-0.376295 8:-0.0986576 9:-0.861939 10:-0.927406 11:-0.626394 12:-0.759343 13:-0.0217924 14:0.216087 15:0.0959008 16:-0.0631691 17:0.347937 18:0.190326 19:-0.373281 20:-0.416896 21:-0.588589 22:-0.376295 23:-0.0986576 24:-0.861939 25:-0.927406 26:-0.626394 27:-0.759343 28:-0.0217924 29:0.216087 30:0.0959008 
23.90252906262724 0 1:-0.082314 2:0.325365 3:0.283628 4:-0.260417 5:-0.281811 6:-0.459559 7:-0.500331 8:-0.264844 9:-0.827171 10:-0.913334 11:-0.514871 12:-0.695214 13:0.0191166 14:0.211494 15:0.0623516 16:-0.082314 17:0.325365 18:0.283628 19:-0.260417 20:-0.281811 21:-0.459559 22:-0.500331 23:-0.264844 24:-0.827171 25:-0.913334 26:-0.514871 27:-0.695214 28:0.0191166 29:0.211494 30:0.0623516 
15.36909525123743 0 1:-0.250933 2:0.0394697 3:-0.757041 4:-0.398476 5:-0.566509 6:-0.848493 7:-0.146048 8:-0.559777 9:-0.892157 10:-0.932668 11:-0.717029 12:-0.808527 13:-0.0306107 14:0.280194 15:0.136671 16:-0.250933 17:0.0394697 18:-0.757041 19:-0.398476 20:-0.566509 21:-0.848493 22:-0.146048 23:-0.559777 24:-0.892157 25:-0.932668 26:-0.717029 27:-0.808527 28:-0.0306107 29:0.280194 30:0.136671 
11.08376230592392 0 1:0.163518 2:0.408342 3:-0.023185 4:-0.298236 5:-0.438249 6:-0.646733 7:-0.000783159 8:-0.560597 9:-0.773066 10:-0.931207 11:-0.687209 12:-0.74178 13:0.0276016 14:0.189314 15:0.068316 16:0.163518 17:0.408342 18:-0.023185 19:-0.298236 20:-0.438249 21:-0.646733 22:-0.000783159 23:-0.560597 24:-0.773066 25:-0.931207 26:-0.687209 27:-0.74178 28:0.0276016 29:0.189314 30:0.068316 
7.682482717313895 0 1:0.0611938 2:0.358245 3:0.127771 4:-0.240585 5:-0.311635 6:-0.350155 7:-0.499452 8:-0.553708 9:-0.771613 10:-0.867692 11:-0.676581 12:-0.697848 13:0.0511249 14:0.174415 15:0.0638995 16:0.0611938 17:0.358245 18:0.127771 19:-0.240585 20:-0.311635 21:-0.350155 22:-0.499452 23:-0.553708 24:-0.771613 25:-0.867692 26:-0.676581 27:-0.697848 28:0.0511249 29:0.174415 30:0.0638995 
32 32 1:-0.170907 2:0.233008 3:-0.2944 4:-0.892536 5:-0.929974 6:-0.947684 7:-0.921557 8:-0.886674 9:-0.988158 10:-0.998098 11:-0.997199 12:-0.992369 13:-0.0987554 14:0.186114 15:0.0850445 16:-0.170907 17:0.233008 18:-0.2944 19:-0.892536 20:-0.929974 21:-0.947684 22:-0.921557 23:-0.886674 24:-0.988158 25:-0.998098 26:-0.997199 27:-0.992369 28:-0.0987554 29:0.186114 30:0.0850445 
32 32 1:-0.131476 2:0.233685 3:-0.322798 4:-0.932266 5:-0.946268 6:-0.989059 7:-0.916401 8:-0.923071 9:-0.996479 10:-0.9989 11:-0.997208 12:-0.996739 13:-0.100746 14:0.187383 15:0.0872431 16:-0.131476 17:0.233685 18:-0.322798 19:-0.932266 20:-0.946268 21:-0.989059 22:-0.916401 23:-0.923071 24:-0.996479 25:-0.9989 26:-0.997208 27:-0.996739 28:-0.100746 29:0.187383 30:0.0872431 
32 32 1:-0.107105 2:0.234161 3:-0.334549 4:-0.950515 5:-0.968248 6:-0.997016 7:-0.935021 8:-0.96467 9:-0.99949 10:-0.998977 11:-0.997217 12:-0.998189 13:-0.101812 14:0.187701 15:0.086935 16:-0.107105 17:0.234161 18:-0.334549 19:-0.950515 20:-0.968248 21:-0.997016 22:-0.935021 23:-0.96467 24:-0.99949 25:-0.998977 26:-0.997217 27:-0.998189 28:-0.101812 29:0.187701 30:0.086935 
32 32 1:-0.103602 2:0.238392 3:-0.333353 4:-0.965149 5:-0.980015 6:-0.994169 7:-0.971272 8:-0.973745 9:-0.999629 10:-0.999237 11:-0.998711 12:-0.998941 13:-0.102059 14:0.187627 15:0.0868415 16:-0.103602 17:0.238392 18:-0.333353 19:-0.965149 20:-0.980015 21:-0.994169 22:-0.971272 23:-0.973745 24:-0.999629 25:-0.999237 26:-0.998711 27:-0.998941 28:-0.102059 29:0.187627 30:0.0868415 
32 32 1:-0.0973728 2:0.250734 3:-0.319902 4:-0.980131 5:-0.978316 6:-0.983957 7:-0.981284 8:-0.978943 9:-0.999675 10:-0.999686 11:-0.999618 12:-0.999561 13:-0.102266 14:0.187154 15:0.0868074 16:-0.0973728 17:0.250734 18:-0.319902 19:-0.980131 20:-0.978316 21:-0.983957 22:-0.981284 23:-0.978943 24:-0.999675 25:-0.999686 26:-0.999618 27:-0.999561 28:-0.102266 29:0.187154 30:0.0868074 
32 32 1:-0.0846085 2:0.267087 3:-0.319465 4:-0.984692 5:-0.979631 6:-0.981158 7:-0.987849 8:-0.986969 9:-0.999696 10:-0.999862 11:-0.999687 12:-0.999705 13:-0.102352 14:0.186909 15:0.0866447 16:-0.0846085 17:0.267087 18:-0.319465 19:-0.984692 20:-0.979631 21:-0.981158 22:-0.987849 23:-0.986969 24:-0.999696 25:-0.999862 26:-0.999687 27:-0.999705 28:-0.102352 29:0.186909 30:0.0866447 
32 32 1:-0.0746637 2:0.274749 3:-0.316954 4:-0.95665 5:-0.931183 6:-0.978133 7:-0.933572 8:-0.921743 9:-0.997618 10:-0.999691 11:-0.997923 12:-0.998012 13:-0.102423 14:0.186707 15:0.0868212 16:-0.0746637 17:0.274749 18:-0.316954 19:-0.95665 20:-0.931183 21:-0.978133 22:-0.933572 23:-0.921743 24:-0.997618 25:-0.999691 26:-0.997923 27:-0.998012 28:-0.102423 29:0.186707 30:0.0868212 
32 32 1:-0.0403944 2:0.255848 3:-0.381488 4:-0.823058 5:-0.77416 6:-0.892824 7:-0.725961 8:-0.702179 9:-0.977573 10:-0.996558 11:-0.965309 12:-0.975278 13:-0.100278 14:0.188373 15:0.0757297 16:-0.0403944 17:0.255848 18:-0.381488 19:-0.823058 20:-0.77416 21:-0.892824 22:-0.725961 23:-0.702179 24:-0.977573 25:-0.996558 26:-0.965309 27:-0.975278 28:-0.100278 29:0.188373 30:0.0757297 
32 32 1:-0.0982966 2:0.241208 3:-0.410548 4:-0.748316 5:-0.656811 6:-0.839284 7:-0.710856 8:-0.626252 9:-0.955609 10:-0.992683 11:-0.961166 12:-0.961201 13:-0.102311 14:0.190692 15:0.0769589 16:-0.0982966 17:0.241208 18:-0.410548 19:-0.748316 20:-0.656811 21:-0.839284 22:-0.710856 23:-0.626252 24:-0.955609 25:-0.992683 26:-0.961166 27:-0.961201 28:-0.102311 29:0.190692 30:0.0769589 
32 32 1:-0.285522 2:0.242056 3:-0.223615 4:-0.634852 5:-0.665619 6:-0.753075 7:-0.590614 8:-0.588729 9:-0.899895 10:-0.983306 11:-0.925008 12:-0.91676 13:-0.101587 14:0.17376 15:0.0598844 16:-0.285522 17:0.242056 18:-0.223615 19:-0.634852 20:-0.665619 21:-0.753075 22:-0.590614 23:-0.588729 24:-0.899895 25:-0.983306 26:-0.925008 27:-0.91676 28:-0.101587 29:0.17376 30:0.0598844 
0 32 1:-0.220768 2:0.350295 3:-0.158526 4:-0.56459 5:-0.619945 6:-0.689014 7:-0.499076 8:-0.595209 9:-0.911489 10:-0.957161 11:-0.90095 12:-0.89742 13:-0.096354 14:0.182175 15:0.0472261 16:-0.220768 17:0.350295 18:-0.158526 19:-0.56459 20:-0.619945 21:-0.689014 22:-0.499076 23:-0.595209 24:-0.911489 25:-0.957161 26:-0.90095 27:-0.89742 28:-0.096354 29:0.182175 30:0.0472261 
32 0 1:0.135267 2:0.27592 3:-0.300285 4:-0.517936 5:-0.527048 6:-0.594944 7:-0.586708 8:-0.545629 9:-0.833347 10:-0.942952 11:-0.944963 12:-0.867735 13:-0.169236 14:0.211223 15:0.0554754 16:0.135267 17:0.27592 18:-0.300285 19:-0.517936 20:-0.527048 21:-0.594944 22:-0.586708 23:-0.545629 24:-0.833347 25:-0.942952 26:-0.944963 27:-0.867735 28:-0.169236 29:0.211223 30:0.0554754 
32 0 1:0.120373 2:0.189242 3:-0.0623902 4:-0.363121 5:-0.430691 6:-0.18354 7:-0.604924 8:-0.566769 9:-0.849157 10:-0.834061 11:-0.877248 12:-0.783518 13:-0.169801 14:0.19703 15:0.112853 16:0.120373 17:0.189242 18:-0.0623902 19:-0.363121 20:-0.430691 21:-0.18354 22:-0.604924 23:-0.566769 24:-0.849157 25:-0.834061 26:-0.877248 27:-0.783518 28:-0.169801 29:0.19703 30:0.112853 
32 0 1:0.189077 2:0.268602 3:-0.0744775 4:-0.477778 5:-0.432493 6:-0.496591 7:-0.497569 8:-0.0954795 9:-0.811073 10:-0.9616 11:-0.847151 12:-0.834594 13:-0.107596 14:0.17264 15:0.195308 16:0.189077 17:0.268602 18:-0.0744775 19:-0.477778 20:-0.432493 21:-0.496591 22:-0.497569 23:-0.0954795 24:-0.811073 25:-0.9616 26:-0.847151 27:-0.834594 28:-0.107596 29:0.17264 30:0.195308 
0.4631485895666559 0 1:-0.722062 2:0.263174 3:-0.141159 4:0.254424 5:-0.251518 6:0.0985001 7:-0.27173 8:-0.398778 9:-0.16795 10:-0.464358 11:-0.767422 12:-0.198243 13:-0.180453 14:0.367401 15:-0.0319663 16:-0.722062 17:0.263174 18:-0.141159 19:0.254424 20:-0.251518 21:0.0985001 22:-0.27173 23:-0.398778 24:-0.16795 25:-0.464358 26:-0.767422 27:-0.198243 28:-0.180453 29:0.367401 30:-0.0319663 
26.10101207955116 0 1:0.1931 2:0.423357 3:-0.181226 4:-0.365618 5:-0.322894 6:-0.400897 7:-0.578521 8:-0.405339 9:-0.74299 10:-0.872985 11:-0.930424 12:-0.777089 13:-0.0965031 14:0.181316 15:0.171207 16:0.1931 17:0.423357 18:-0.181226 19:-0.365618 20:-0.322894 21:-0.400897 22:-0.578521 23:-0.405339 24:-0.74299 25:-0.872985 26:-0.930424 27:-0.777089 28:-0.0965031 29:0.181316 30:0.171207 
32 0 1:0.232984 2:0.333816 3:0.0525962 4:-0.291845 5:-0.326763 6:-0.322482 7:-0.470469 8:-0.164333 9:-0.746484 10:-0.869047 11:-0.761564 12:-0.716892 13:-0.122339 14:0.230841 15:0.210248 16:0.232984 17:0.333816 18:0.0525962 19:-0.291845 20:-0.326763 21:-0.322482 22:-0.470469 23:-0.164333 24:-0.746484 25:-0.869047 26:-0.761564 27:-0.716892 28:-0.122339 29:0.230841 30:0.210248 
32 0 1:0.263129 2:0.305907 3:-0.176581 4:-0.309634 5:-0.290811 6:-0.0886514 7:-0.560013 8:-0.358754 9:-0.748645 10:-0.826551 11:-0.916753 12:-0.746018 13:-0.133418 14:0.16074 15:0.127507 16:0.263129 17:0.305907 18:-0.176581 19:-0.309634 20:-0.290811 21:-0.0886514 22:-0.560013 23:-0.358754 24:-0.748645 25:-0.826551 26:-0.916753 27:-0.746018 28:-0.133418 29:0.16074 30:0.127507 
32 0 1:0.212185 2:0.289828 3:0.0776107 4:-0.326765 5:-0.171022 6:-0.526359 7:-0.468949 8:-0.244709 9:-0.722853 10:-0.940478 11:-0.754354 12:-0.74782 13:-0.183948 14:0.248368 15:0.140154 16:0.212185 17:0.289828 18:0.0776107 19:-0.326765 20:-0.171022 21:-0.526359 22:-0.468949 23:-0.244709 24:-0.722853 25:-0.940478 26:-0.754354 27:-0.74782 28:-0.183948 29:0.248368 30:0.140154 
32 32 1:-0.0133999 2:0.436646 3:-0.279158 4:-0.701569 5:-0.729412 6:-0.812059 7:-0.842047 8:-0.802629 9:-0.965094 10:-0.9528 11:-0.989935 12:-0.95091 13:-0.0934542 14:0.196273 15:0.0854942 16:-0.0133999 17:0.436646 18:-0.279158 19:-0.701569 20:-0.729412 21:-0.812059 22:-0.842047 23:-0.802629 24:-0.965094 25:-0.9528 26:-0.989935 27:-0.95091 28:-0.0934542 29:0.196273 30:0.0854942 
32 0 1:0.143802 2:0.500298 3:-0.124711 4:-0.442199 5:-0.384645 6:-0.657968 7:-0.706588 8:-0.154122 9:-0.736727 10:-0.901954 11:-0.925702 12:-0.790544 13:-0.011119 14:0.235577 15:0.180091 16:0.143802 17:0.500298 18:-0.124711 19:-0.442199 20:-0.384645 21:-0.657968 22:-0.706588 23:-0.154122 24:-0.736727 25:-0.901954 26:-0.925702 27:-0.790544 28:-0.011119 29:0.235577 30:0.180091 
32 0 1:0.268167 2:0.203347 3:-0.302817 4:-0.214625 5:-0.113621 6:-0.297364 7:-0.53831 8:-0.232919 9:-0.640732 10:-0.781858 11:-0.910394 12:-0.665818 13:0.039783 14:0.264904 15:0.120944 16:0.268167 17:0.203347 18:-0.302817 19:-0.214625 20:-0.113621 21:-0.297364 22:-0.53831 23:-0.232919 24:-0.640732 25:-0.781858 26:-0.910394 27:-0.665818 28:0.039783 29:0.264904 30:0.120944 
8.490095822334327 0 1:0.0137944 2:0.242745 3:-0.211353 4:-0.452701 5:-0.349354 6:-0.227145 7:-0.289066 8:0.115591 9:-0.842369 10:-0.856289 11:-0.828757 12:-0.777142 13:-0.0321732 14:0.261701 15:0.190099 16:0.0137944 17:0.242745 18:-0.211353 19:-0.452701 20:-0.349354 21:-0.227145 22:-0.289066 23:0.115591 24:-0.842369 25:-0.856289 26:-0.828757 27:-0.777142 28:-0.0321732 29:0.261701 30:0.190099 
32 0 1:-0.131659 2:0.339009 3:-0.102508 4:-0.568128 5:-0.528755 6:-0.576767 7:-0.322987 8:-0.059269 9:-0.919072 10:-0.950363 11:-0.806794 12:-0.86361 13:-0.0800284 14:0.259935 15:0.124917 16:-0.131659 17:0.339009 18:-0.102508 19:-0.568128 20:-0.528755 21:-0.576767 22:-0.322987 23:-0.059269 24:-0.919072 25:-0.950363 26:-0.806794 27:-0.86361 28:-0.0800284 29:0.259935 30:0.124917 
6.130323953357587 0 1:-0.038375 2:0.364442 3:-0.142816 4:-0.486205 5:-0.406707 6:-0.425773 7:-0.0215233 8:-0.0172764 9:-0.849002 10:-0.949807 11:-0.733623 12:-0.804969 13:-0.0216674 14:0.249489 15:0.221706 16:-0.038375 17:0.364442 18:-0.142816 19:-0.486205 20:-0.406707 21:-0.425773 22:-0.0215233 23:-0.0172764 24:-0.849002 25:-0.949807 26:-0.733623 27:-0.804969 28:-0.0216674 29:0.249489 30:0.221706 
32 32 1:-0.0388483 2:0.248751 3:-0.347472 4:-0.856871 5:-0.864065 6:-0.862905 7:-0.797206 8:-0.780464 9:-0.988662 10:-0.99466 11:-0.98358 12:-0.985676 13:-0.0999203 14:0.186125 15:0.0825103 16:-0.0388483 17:0.248751 18:-0.347472 19:-0.856871 20:-0.864065 21:-0.862905 22:-0.797206 23:-0.780464 24:-0.988662 25:-0.99466 26:-0.98358 27:-0.985676 28:-0.0999203 29:0.186125 30:0.0825103 
32 32 1:-0.0245227 2:0.34049 3:-0.210768 4:-0.793982 5:-0.850896 6:-0.775027 7:-0.744958 8:-0.551145 9:-0.984002 10:-0.976057 11:-0.962645 12:-0.964573 13:-0.0825954 14:0.205022 15:0.0985719 16:-0.0245227 17:0.34049 18:-0.210768 19:-0.793982 20:-0.850896 21:-0.775027 22:-0.744958 23:-0.551145 24:-0.984002 25:-0.976057 26:-0.962645 27:-0.964573 28:-0.0825954 29:0.205022 30:0.0985719 
32 0 1:0.138974 2:0.463747 3:0.0329352 4:-0.484656 5:-0.637489 6:-0.636362 7:-0.46019 8:0.0397664 9:-0.853351 10:-0.916357 11:-0.766504 12:-0.797737 13:0.0164842 14:0.29219 15:0.218294 16:0.138974 17:0.463747 18:0.0329352 19:-0.484656 20:-0.637489 21:-0.636362 22:-0.46019 23:0.0397664 24:-0.853351 25:-0.916357 26:-0.766504 27:-0.797737 28:0.0164842 29:0.29219 30:0.218294 
27.19247752660408 0 1:0.0559874 2:0.47974 3:0.0192995 4:-0.418288 5:-0.359651 6:-0.692088 7:-0.323043 8:0.016166 9:-0.830606 10:-0.916238 11:-0.730845 12:-0.774554 13:-0.0336988 14:0.294579 15:0.190008 16:0.0559874 17:0.47974 18:0.0192995 19:-0.418288 20:-0.359651 21:-0.692088 22:-0.323043 23:0.016166 24:-0.830606 25:-0.916238 26:-0.730845 27:-0.774554 28:-0.0336988 29:0.294579 30:0.190008 
32 0 1:0.270813 2:0.522426 3:-0.0609149 4:-0.360143 5:-0.555515 6:-0.687668 7:-0.555452 8:-0.12478 9:-0.716632 10:-0.890134 11:-0.865895 12:-0.752821 13:0.0560895 14:0.259232 15:0.208638 16:0.270813 17:0.522426 18:-0.0609149 19:-0.360143 20:-0.555515 21:-0.687668 22:-0.555452 23:-0.12478 24:-0.716632 25:-0.890134 26:-0.865895 27:-0.752821 28:0.0560895 29:0.259232 30:0.208638 
3.328771326172707 0 1:0.0355509 2:-0.694995 3:-0.698161 4:0.371571 5:0.0351873 6:0.302297 7:-0.468921 8:-0.321928 9:-0.733392 10:0.216411 11:-0.774233 12:-0.0398491 13:-0.184017 14:0.527172 15:0.017637 16:0.0355509 17:-0.694995 18:-0.698161 19:0.371571 20:0.0351873 21:0.302297 22:-0.468921 23:-0.321928 24:-0.733392 25:0.216411 26:-0.774233 27:-0.0398491 28:-0.184017 29:0.527172 30:0.017637 
1.139374872409453 0 1:-0.106498 2:-0.770409 3:-0.573497 4:0.518498 5:0.459393 6:0.211818 7:-0.552202 8:-0.31428 9:-0.492323 10:0.422547 11:-0.864379 12:0.168767 13:0.13681 14:0.415677 15:0.0027819 16:-0.106498 17:-0.770409 18:-0.573497 19:0.518498 20:0.459393 21:0.211818 22:-0.552202 23:-0.31428 24:-0.492323 25:0.422547 26:-0.864379 27:0.168767 28:0.13681 29:0.415677 30:0.0027819 
32 32 1:-0.0702309 2:0.243535 3:-0.427405 4:-0.877421 5:-0.919318 6:-0.887424 7:-0.841852 8:-0.724262 9:-0.996707 10:-0.996067 11:-0.974488 12:-0.987093 13:-0.104677 14:0.19117 15:0.0829811 16:-0.0702309 17:0.243535 18:-0.427405 19:-0.877421 20:-0.919318 21:-0.887424 22:-0.841852 23:-0.724262 24:-0.996707 25:-0.996067 26:-0.974488 27:-0.987093 28:-0.104677 29:0.19117 30:0.0829811 
32 32 1:0.03797 2:0.185864 3:-0.442224 4:-0.699151 5:-0.757674 6:-0.827381 7:-0.637826 8:-0.632014 9:-0.946719 10:-0.984714 11:-0.936222 12:-0.943341 13:-0.115592 14:0.206325 15:0.0869149 16:0.03797 17:0.185864 18:-0.442224 19:-0.699151 20:-0.757674 21:-0.827381 22:-0.637826 23:-0.632014 24:-0.946719 25:-0.984714 26:-0.936222 27:-0.943341 28:-0.115592 29:0.206325 30:0.0869149 
32 0 1:0.105285 2:0.379855 3:-0.144927 4:-0.484228 5:-0.737631 6:-0.561975 7:-0.492632 8:-0.444523 9:-0.917469 10:-0.902449 11:-0.849373 12:-0.848023 13:-0.0640823 14:0.279406 15:0.130089 16:0.105285 17:0.379855 18:-0.144927 19:-0.484228 20:-0.737631 21:-0.561975 22:-0.492632 23:-0.444523 24:-0.917469 25:-0.902449 26:-0.849373 27:-0.848023 28:-0.0640823 29:0.279406 30:0.130089 
32 0 1:0.143045 2:0.657047 3:0.177136 4:-0.254685 5:-0.681516 6:-0.54937 7:-0.551254 8:-0.400808 9:-0.872126 10:-0.781602 11:-0.702499 12:-0.70011 13:0.0414755 14:0.378331 15:0.218714 16:0.143045 17:0.657047 18:0.177136 19:-0.254685 20:-0.681516 21:-0.54937 22:-0.551254 23:-0.400808 24:-0.872126 25:-0.781602 26:-0.702499 27:-0.70011 28:0.0414755 29:0.378331 30:0.218714 
32 32 1:-0.0326269 2:0.193044 3:-0.255127 4:-0.758746 5:-0.742089 6:-0.811242 7:-0.630643 8:-0.595311 9:-0.971728 10:-0.984418 11:-0.951228 12:-0.960057 13:-0.100302 14:0.187332 15:0.102811 16:-0.0326269 17:0.193044 18:-0.255127 19:-0.758746 20:-0.742089 21:-0.811242 22:-0.630643 23:-0.595311 24:-0.971728 25:-0.984418 26:-0.951228 27:-0.960057 28:-0.100302 29:0.187332 30:0.102811 
32 32 1:-0.158848 2:0.239573 3:-0.304902 4:-0.678838 5:-0.591899 6:-0.710333 7:-0.475574 8:-0.380632 9:-0.937208 10:-0.975564 11:-0.911421 12:-0.924506 13:-0.0844542 14:0.207712 15:0.112109 16:-0.158848 17:0.239573 18:-0.304902 19:-0.678838 20:-0.591899 21:-0.710333 22:-0.475574 23:-0.380632 24:-0.937208 25:-0.975564 26:-0.911421 27:-0.924506 28:-0.0844542 29:0.207712 30:0.112109 
1.631594636276 0 1:0.450539 2:0.789655 3:0.0513765 4:0.111449 5:-0.328133 6:0.212163 7:-0.49842 8:-0.142578 9:-0.397297 10:-0.56338 11:-0.760658 12:-0.364077 13:0.300178 14:0.410365 15:0.282645 16:0.450539 17:0.789655 18:0.0513765 19:0.111449 20:-0.328133 21:0.212163 22:-0.49842 23:-0.142578 24:-0.397297 25:-0.56338 26:-0.760658 27:-0.364077 28:0.300178 29:0.410365 30:0.282645 
0.2626316953460095 0 1:-0.0907139 2:-0.812405 3:-0.267635 4:0.634921 5:0.631345 6:0.376891 7:-0.437288 8:-0.36468 9:-0.179434 10:0.507228 11:-0.937139 12:0.341304 13:0.0792296 14:0.144724 15:0.0429858 16:-0.0907139 17:-0.812405 18:-0.267635 19:0.634921 20:0.631345 21:0.376891 22:-0.437288 23:-0.36468 24:-0.179434 25:0.507228 26:-0.937139 27:0.341304 28:0.0792296 29:0.144724 30:0.0429858 
0.4777524369254518 0 1:0.159437 2:-0.0952251 3:-0.191881 4:0.39898 5:0.397991 6:0.346846 7:-0.717426 8:-0.278193 9:-0.16795 10:-0.0126684 11:-0.953984 12:0.0172208 13:0.197578 14:0.229528 15:0.118402 16:0.159437 17:-0.0952251 18:-0.191881 19:0.39898 20:0.397991 21:0.346846 22:-0.717426 23:-0.278193 24:-0.16795 25:-0.0126684 26:-0.953984 27:0.0172208 28:0.197578 29:0.229528 30:0.118402 
0.1383548903907741 0 1:0.198601 2:-0.223843 3:-0.160849 4:0.515402 5:0.345721 6:0.344198 7:-0.131793 8:-0.429432 9:-0.116997 10:0.0236547 11:-0.706503 12:0.150521 13:0.350812 14:0.38432 15:0.291523 16:0.198601 17:-0.223843 18:-0.160849 19:0.515402 20:0.345721 21:0.344198 22:-0.131793 23:-0.429432 24:-0.116997 25:0.0236547 26:-0.706503 27:0.150521 28:0.350812 29:0.38432 30:0.291523 
4.960225854735897 0 1:0.458112 2:0.806129 3:0.21537 4:0.188471 5:-0.167573 6:-0.225291 7:-0.435 8:-0.207515 9:-0.250596 10:-0.599669 11:-0.594956 12:-0.260213 13:0.339818 14:0.435544 15:0.423862 16:0.458112 17:0.806129 18:0.21537 19:0.188471 20:-0.167573 21:-0.225291 22:-0.435 23:-0.207515 24:-0.250596 25:-0.599669 26:-0.594956 27:-0.260213 28:0.339818 29:0.435544 30:0.423862 
1.236371383049719 0 1:0.362125 2:-0.197056 3:-0.479859 4:0.478242 5:0.121571 6:0.395654 7:-0.341705 8:-0.338106 9:-0.154113 10:0.0530305 11:-0.817313 12:0.112585 13:-0.0390914 14:0.431589 15:0.0652622 16:0.362125 17:-0.197056 18:-0.479859 19:0.478242 20:0.121571 21:0.395654 22:-0.341705 23:-0.338106 24:-0.154113 25:0.0530305 26:-0.817313 27:0.112585 28:-0.0390914 29:0.431589 30:0.0652622 
2.463324450849079 0 1:0.667105 2:0.443899 3:-0.335206 4:0.440291 5:-0.533309 6:0.67538 7:-0.283655 8:-0.530928 9:0.0255238 10:-0.219476 11:-0.76805 12:0.0438396 13:0.169888 14:0.476135 15:0.0765295 16:0.667105 17:0.443899 18:-0.335206 19:0.440291 20:-0.533309 21:0.67538 22:-0.283655 23:-0.530928 24:0.0255238 25:-0.219476 26:-0.76805 27:0.0438396 28:0.169888 29:0.476135 30:0.0765295 
2.518718511638696 0 1:0.0541941 2:-0.553005 3:-0.84843 4:0.51158 5:0.164421 6:0.358933 7:-0.376113 8:-0.403494 9:-0.219058 10:0.0629157 11:-0.62265 12:0.156996 13:0.0643693 14:0.676636 15:0.0814328 16:0.0541941 17:-0.553005 18:-0.84843 19:0.51158 20:0.164421 21:0.358933 22:-0.376113 23:-0.403494 24:-0.219058 25:0.0629157 26:-0.62265 27:0.156996 28:0.0643693 29:0.676636 30:0.0814328 
32 32 1:-0.0974303 2:0.328508 3:-0.2772 4:-0.797435 5:-0.756112 6:-0.855066 7:-0.652709 8:-0.603902 9:-0.980048 10:-0.988915 11:-0.958395 12:-0.969242 13:-0.102558 14:0.197504 15:0.0944015 16:-0.0974303 17:0.328508 18:-0.2772 19:-0.797435 20:-0.756112 21:-0.855066 22:-0.652709 23:-0.603902 24:-0.980048 25:-0.988915 26:-0.958395 27:-0.969242 28:-0.102558 29:0.197504 30:0.0944015 
32 32 1:-0.144241 2:0.360525 3:-0.06686 4:-0.602567 5:-0.626254 6:-0.691017 7:-0.455977 8:-0.393139 9:-0.944631 10:-0.962931 11:-0.834693 12:-0.893116 13:-0.0871392 14:0.220073 15:0.0681676 16:-0.144241 17:0.360525 18:-0.06686 19:-0.602567 20:-0.626254 21:-0.691017 22:-0.455977 23:-0.393139 24:-0.944631 25:-0.962931 26:-0.834693 27:-0.893116 28:-0.0871392 29:0.220073 30:0.0681676 
32 32 1:-0.150807 2:0.278933 3:-0.361221 4:-0.826445 5:-0.839528 6:-0.812301 7:-0.720871 8:-0.651472 9:-0.985645 10:-0.990245 11:-0.970005 12:-0.976754 13:-0.10575 14:0.178669 15:0.0925192 16:-0.150807 17:0.278933 18:-0.361221 19:-0.826445 20:-0.839528 21:-0.812301 22:-0.720871 23:-0.651472 24:-0.985645 25:-0.990245 26:-0.970005 27:-0.976754 28:-0.10575 29:0.178669 30:0.0925192 
32 32 1:-0.153474 2:0.308098 3:-0.239721 4:-0.80772 5:-0.858502 6:-0.817389 7:-0.689028 8:-0.628343 9:-0.986876 10:-0.98859 11:-0.956637 12:-0.971595 13:-0.102546 14:0.180926 15:0.0731646 16:-0.153474 17:0.308098 18:-0.239721 19:-0.80772 20:-0.858502 21:-0.817389 22:-0.689028 23:-0.628343 24:-0.986876 25:-0.98859 26:-0.956637 27:-0.971595 28:-0.102546 29:0.180926 30:0.0731646 
32 32 1:-0.11973 2:0.301241 3:-0.333504 4:-0.711821 5:-0.734856 6:-0.778538 7:-0.544573 8:-0.567159 9:-0.972499 10:-0.984967 11:-0.915153 12:-0.948074 13:-0.0951171 14:0.17773 15:0.0687377 16:-0.11973 17:0.301241 18:-0.333504 19:-0.711821 20:-0.734856 21:-0.778538 22:-0.544573 23:-0.567159 24:-0.972499 25:-0.984967 26:-0.915153 27:-0.948074 28:-0.0951171 29:0.17773 30:0.0687377 
32 0 1:-0.210886 2:0.0943465 3:-0.611001 4:-0.495554 5:-0.561811 6:-0.515538 7:-0.498239 8:-0.11744 9:-0.897159 10:-0.881471 11:-0.830115 12:-0.818759 13:-0.00131257 14:0.254531 15:0.150034 16:-0.210886 17:0.0943465 18:-0.611001 19:-0.495554 20:-0.561811 21:-0.515538 22:-0.498239 23:-0.11744 24:-0.897159 25:-0.881471 26:-0.830115 27:-0.818759 28:-0.00131257 29:0.254531 30:0.150034 
22.08279560785374 0 1:-0.00351302 2:-0.194341 3:-0.392947 4:-0.131937 5:-0.238312 6:-0.365937 7:-0.361747 8:-0.0649897 9:-0.709396 10:-0.650402 11:-0.81183 12:-0.58128 13:-0.20168 14:0.222193 15:0.214757 16:-0.00351302 17:-0.194341 18:-0.392947 19:-0.131937 20:-0.238312 21:-0.365937 22:-0.361747 23:-0.0649897 24:-0.709396 25:-0.650402 26:-0.81183 27:-0.58128 28:-0.20168 29:0.222193 30:0.214757 
0.5983445656689703 0 1:0.0539521 2:0.0314262 3:0.0732651 4:0.623983 5:0.183971 6:0.647753 7:0.635828 8:0.178478 9:-0.515392 10:0.207652 11:0.206997 12:0.401028 13:-0.0301546 14:0.862395 15:0.248455 16:0.0539521 17:0.0314262 18:0.0732651 19:0.623983 20:0.183971 21:0.647753 22:0.635828 23:0.178478 24:-0.515392 25:0.207652 26:0.206997 27:0.401028 28:-0.0301546 29:0.862395 30:0.248455 
1.605636445351417 0 1:-0.176534 2:-0.850583 3:-0.641288 4:0.785472 5:0.284318 6:0.666056 7:0.64336 8:0.4486 9:-0.416949 10:0.826393 11:-0.257978 12:0.668303 13:0.270934 14:0.806577 15:0.251735 16:-0.176534 17:-0.850583 18:-0.641288 19:0.785472 20:0.284318 21:0.666056 22:0.64336 23:0.4486 24:-0.416949 25:0.826393 26:-0.257978 27:0.668303 28:0.270934 29:0.806577 30:0.251735 
1.069581156591168 0 1:0.59269 2:0.576058 3:0.0570148 4:0.482788 5:-0.405529 6:1 7:0.541821 8:0.244009 9:-0.116622 10:-0.21043 11:-0.233594 12:0.171313 13:0.139164 14:0.782951 15:0.257895 16:0.59269 17:0.576058 18:0.0570148 19:0.482788 20:-0.405529 21:1 22:0.541821 23:0.244009 24:-0.116622 25:-0.21043 26:-0.233594 27:0.171313 28:0.139164 29:0.782951 30:0.257895 
0.04185533943651021 0 1:0.0282777 2:-0.793578 3:-0.600987 4:0.762346 5:0.860853 6:0.587548 7:0.130394 8:-0.029989 9:0.0907611 10:0.537893 11:-0.68044 12:0.576227 13:-0.0647016 14:0.48185 15:-0.0268068 16:0.0282777 17:-0.793578 18:-0.600987 19:0.762346 20:0.860853 21:0.587548 22:0.130394 23:-0.029989 24:0.0907611 25:0.537893 26:-0.68044 27:0.576227 28:-0.0647016 29:0.48185 30:-0.0268068 
0.2161226453705991 0 1:0.0259111 2:-0.23664 3:-0.15662 4:0.71774 5:0.585203 6:0.500523 7:0.465388 8:-0.0197779 9:0.0483278 10:0.208389 11:-0.221407 12:0.512871 13:0.423518 14:0.632563 15:0.318697 16:0.0259111 17:-0.23664 18:-0.15662 19:0.71774 20:0.585203 21:0.500523 22:0.465388 23:-0.0197779 24:0.0483278 25:0.208389 26:-0.221407 27:0.512871 28:0.423518 29:0.632563 30:0.318697 
0.07427340501951839 0 1:-0.130105 2:-0.817374 3:-0.574965 4:0.768671 5:1 6:0.13422 7:0.125694 8:-0.0236737 9:0.137749 10:0.485792 11:-0.626551 12:0.584595 13:0.114662 14:0.524373 15:0.341984 16:-0.130105 17:-0.817374 18:-0.574965 19:0.768671 20:1 21:0.13422 22:0.125694 23:-0.0236737 24:0.137749 25:0.485792 26:-0.626551 27:0.584595 28:0.114662 29:0.524373 30:0.341984 
1.194298363503795 0 1:-0.0912411 2:-0.779666 3:-0.670699 4:0.75971 5:0.984019 6:0.0112671 7:0.0503488 8:0.152663 9:0.164276 10:0.445269 11:-0.587655 12:0.585383 13:0.0977596 14:0.628483 15:0.419104 16:-0.0912411 17:-0.779666 18:-0.670699 19:0.75971 20:0.984019 21:0.0112671 22:0.0503488 23:0.152663 24:0.164276 25:0.445269 26:-0.587655 27:0.585383 28:0.0977596 29:0.628483 30:0.419104 
0.2711207240692243 0 1:0.471312 2:0.0928926 3:-0.282368 4:0.373218 5:0.283477 6:0.36066 7:-0.2977 8:-0.185144 9:-0.175784 10:-0.126428 11:-0.852314 12:-0.0214578 13:-0.180257 14:0.366074 15:0.143774 16:0.471312 17:0.0928926 18:-0.282368 19:0.373218 20:0.283477 21:0.36066 22:-0.2977 23:-0.185144 24:-0.175784 25:-0.126428 26:-0.852314 27:-0.0214578 28:-0.180257 29:0.366074 30:0.143774 
0.2448549927831724 0 1:0.625822 2:0.509728 3:-0.0715707 4:0.299952 5:-0.650082 6:0.726721 7:-0.117176 8:-0.142188 9:-0.094997 10:-0.44255 11:-0.701569 12:-0.12761 13:0.074535 14:0.440252 15:0.242518 16:0.625822 17:0.509728 18:-0.0715707 19:0.299952 20:-0.650082 21:0.726721 22:-0.117176 23:-0.142188 24:-0.094997 25:-0.44255 26:-0.701569 27:-0.12761 28:0.074535 29:0.440252 30:0.242518 
0.1926017473519117 0 1:-0.0809514 2:-0.704775 3:-0.66983 4:0.684006 5:0.990507 6:0.0887845 7:-0.360604 8:-0.0664045 9:0.185011 10:0.322606 11:-0.786003 12:0.448958 13:0.185211 14:0.581909 15:0.153863 16:-0.0809514 17:-0.704775 18:-0.66983 19:0.684006 20:0.990507 21:0.0887845 22:-0.360604 23:-0.0664045 24:0.185011 25:0.322606 26:-0.786003 27:0.448958 28:0.185211 29:0.581909 30:0.153863 
0.707427867585811 0 1:0.657428 2:0.464526 3:-0.0210451 4:0.448065 5:-0.697521 6:0.853576 7:0.108482 8:-0.221191 9:-0.0338618 10:-0.233511 11:-0.574286 12:0.0756305 13:0.080232 14:0.515681 15:0.301858 16:0.657428 17:0.464526 18:-0.0210451 19:0.448065 20:-0.697521 21:0.853576 22:0.108482 23:-0.221191 24:-0.0338618 25:-0.233511 26:-0.574286 27:0.0756305 28:0.080232 29:0.515681 30:0.301858 
0.1220740337993999 0 1:0.396466 2:0.69829 3:0.132599 4:0.0359426 5:-0.18782 6:0.181888 7:-0.439603 8:-0.0427221 9:-0.39192 10:-0.714852 11:-0.711606 12:-0.438585 13:0.176048 14:0.380017 15:0.292133 16:0.396466 17:0.69829 18:0.132599 19:0.0359426 20:-0.18782 21:0.181888 22:-0.439603 23:-0.0427221 24:-0.39192 25:-0.714852 26:-0.711606 27:-0.438585 28:0.176048 29:0.380017 30:0.292133 
0.3433720568566958 0 1:-0.0891975 2:-0.141426 3:-0.215713 4:0.478966 5:0.572946 6:0.112671 7:0.138065 8:0.359202 9:0.0896374 10:-0.275942 11:-0.416065 12:0.16226 13:0.669269 14:0.573547 15:0.543967 16:-0.0891975 17:-0.141426 18:-0.215713 19:0.478966 20:0.572946 21:0.112671 22:0.138065 23:0.359202 24:0.0896374 25:-0.275942 26:-0.416065 27:0.16226 28:0.669269 29:0.573547 30:0.543967 
32 32 1:-0.0745811 2:0.284305 3:-0.322093 4:-0.922646 5:-0.944671 6:-0.966842 7:-0.847878 8:-0.895979 9:-0.998211 10:-0.999073 11:-0.9912 12:-0.995539 13:-0.101253 14:0.186575 15:0.0863185 16:-0.0745811 17:0.284305 18:-0.322093 19:-0.922646 20:-0.944671 21:-0.966842 22:-0.847878 23:-0.895979 24:-0.998211 25:-0.999073 26:-0.9912 27:-0.995539 28:-0.101253 29:0.186575 30:0.0863185 
32 32 1:-0.0856897 2:0.280074 3:-0.305791 4:-0.937616 5:-0.930071 6:-0.95251 7:-0.893465 8:-0.924773 9:-0.998257 10:-0.99896 11:-0.995756 12:-0.997092 13:-0.101225 14:0.186947 15:0.0873692 16:-0.0856897 17:0.280074 18:-0.305791 19:-0.937616 20:-0.930071 21:-0.95251 22:-0.893465 23:-0.924773 24:-0.998257 25:-0.99896 26:-0.995756 27:-0.997092 28:-0.101225 29:0.186947 30:0.0873692 
32 32 1:-0.100958 2:0.264989 3:-0.341611 4:-0.926856 5:-0.905031 6:-0.932551 7:-0.910454 8:-0.875266 9:-0.996276 10:-0.99857 11:-0.994844 12:-0.995608 13:-0.0999996 14:0.187606 15:0.0883694 16:-0.100958 17:0.264989 18:-0.341611 19:-0.926856 20:-0.905031 21:-0.932551 22:-0.910454 23:-0.875266 24:-0.996276 25:-0.99857 26:-0.994844 27:-0.995608 28:-0.0999996 29:0.187606 30:0.0883694 
32 32 1:-0.109658 2:0.259375 3:-0.350262 4:-0.912928 5:-0.896726 6:-0.922026 7:-0.863345 8:-0.850658 9:-0.995955 10:-0.998354 11:-0.99115 12:-0.994025 13:-0.0998258 14:0.187164 15:0.0880515 16:-0.109658 17:0.259375 18:-0.350262 19:-0.912928 20:-0.896726 21:-0.922026 22:-0.863345 23:-0.850658 24:-0.995955 25:-0.998354 26:-0.99115 27:-0.994025 28:-0.0998258 29:0.187164 30:0.0880515 
32 32 1:-0.0787505 2:0.292524 3:-0.361326 4:-0.892516 5:-0.885622 6:-0.92055 7:-0.857404 8:-0.845227 9:-0.994852 10:-0.996786 11:-0.988754 12:-0.991694 13:-0.0987631 14:0.184412 15:0.0856706 16:-0.0787505 17:0.292524 18:-0.361326 19:-0.892516 20:-0.885622 21:-0.92055 22:-0.857404 23:-0.845227 24:-0.994852 25:-0.996786 26:-0.988754 27:-0.991694 28:-0.0987631 29:0.184412 30:0.0856706 
